<?xml version="1.0"?>
<opencv_storage>
<opencv_ml_svm>
  <format>3</format>
  <svmType>C_SVC</svmType>
  <kernel>
    <type>RBF</type>
    <gamma>1.</gamma></kernel>
  <C>1.</C>
  <term_criteria><iterations>100</iterations></term_criteria>
  <var_count>625</var_count>
  <class_count>2</class_count>
  <class_labels type_id="opencv-matrix">
    <rows>2</rows>
    <cols>1</cols>
    <dt>i</dt>
    <data>
      0 1</data></class_labels>
  <sv_total>200</sv_total>
  <support_vectors>
    <_>
      8. 7. 6. 5. 5. 6. 6. 5. 7. 4. 6. 6. 5. 7. 6. 5. 6. 6. 6. 6. 6. 5.
      5. 5. 6. 5. 6. 7. 7. 6. 6. 6. 6. 7. 6. 7. 8. 9. 14. 15. 14. 6. 6.
      6. 5. 5. 6. 6. 6. 6. 5. 7. 8. 7. 6. 6. 5. 5. 4. 3. 6. 15. 28. 37.
      33. 21. 7. 6. 6. 5. 5. 6. 7. 8. 5. 7. 7. 7. 7. 6. 5. 5. 6. 8. 15.
      23. 31. 38. 42. 37. 25. 7. 6. 6. 5. 5. 6. 7. 8. 6. 6. 6. 6. 7. 5.
      5. 11. 18. 25. 33. 37. 39. 38. 38. 36. 26. 7. 6. 6. 6. 6. 6. 6. 7.
      6. 6. 5. 7. 8. 5. 5. 19. 35. 38. 40. 37. 39. 40. 41. 38. 26. 6. 6.
      6. 6. 6. 6. 6. 5. 6. 14. 8. 6. 7. 5. 6. 21. 41. 38. 40. 36. 37.
      38. 37. 37. 26. 6. 6. 6. 6. 6. 6. 6. 6. 7. 25. 12. 5. 6. 6. 7. 20.
      38. 39. 33. 22. 27. 37. 42. 40. 24. 6. 6. 6. 6. 6. 6. 6. 6. 9. 28.
      9. 9. 5. 4. 7. 16. 28. 21. 15. 8. 25. 38. 39. 40. 24. 7. 6. 6. 6.
      6. 5. 6. 7. 10. 40. 11. 7. 5. 6. 8. 7. 9. 7. 6. 4. 25. 40. 41. 42.
      26. 7. 6. 6. 6. 6. 5. 6. 7. 12. 38. 9. 8. 8. 5. 5. 6. 7. 5. 6. 6.
      27. 39. 38. 38. 23. 6. 6. 6. 6. 6. 6. 6. 7. 13. 43. 9. 6. 7. 5. 6.
      7. 5. 5. 6. 7. 27. 39. 38. 39. 25. 6. 6. 6. 6. 6. 6. 7. 8. 14. 43.
      10. 8. 7. 5. 6. 6. 5. 5. 5. 5. 26. 39. 39. 40. 26. 6. 6. 6. 6. 6.
      6. 7. 8. 14. 35. 9. 9. 8. 5. 6. 7. 7. 7. 7. 6. 27. 40. 39. 38. 22.
      6. 6. 6. 6. 6. 6. 7. 8. 14. 34. 9. 6. 5. 7. 9. 5. 2. 5. 5. 5. 27.
      40. 40. 39. 23. 6. 6. 6. 6. 6. 6. 7. 8. 12. 26. 8. 10. 6. 5. 5. 5.
      9. 6. 6. 5. 26. 38. 37. 37. 22. 6. 6. 6. 6. 6. 5. 6. 7. 12. 21.
      11. 5. 6. 7. 6. 6. 7. 5. 6. 6. 26. 37. 37. 38. 24. 7. 6. 6. 6. 6.
      6. 7. 7. 10. 15. 9. 6. 6. 6. 6. 6. 6. 5. 6. 6. 25. 37. 38. 40. 24.
      7. 6. 6. 6. 6. 6. 6. 7. 8. 8. 6. 6. 6. 6. 6. 7. 5. 5. 7. 7. 26.
      38. 39. 40. 25. 6. 6. 6. 5. 5. 6. 6. 6. 8. 7. 5. 6. 6. 6. 6. 7. 6.
      6. 6. 6. 27. 38. 36. 37. 24. 6. 6. 6. 5. 5. 6. 6. 6. 7. 11. 7. 5.
      6. 6. 5. 6. 6. 6. 4. 5. 28. 38. 33. 35. 24. 6. 6. 6. 6. 6. 6. 6.
      6. 6. 14. 9. 6. 7. 6. 4. 5. 6. 7. 5. 6. 28. 37. 32. 35. 25. 6. 6.
      6. 6. 6. 6. 6. 6. 5. 12. 8. 7. 7. 5. 5. 6. 5. 6. 7. 7. 25. 33. 31.
      34. 24. 6. 6. 6. 6. 6. 6. 7. 7. 6. 7. 7. 8. 7. 5. 7. 7. 4. 4. 7.
      6. 21. 28. 28. 32. 21. 6. 6. 6. 6. 6. 6. 7. 7. 6. 7. 8. 7. 7. 6.
      6. 6. 5. 6. 6. 6. 14. 13. 15. 15. 11. 6. 6. 6. 5. 6. 7. 7. 6. 6.</_>
    <_>
      9. 9. 8. 9. 9. 8. 7. 6. 7. 8. 10. 7. 8. 5. 6. 10. 7. 7. 7. 7. 7.
      7. 7. 7. 6. 8. 7. 6. 5. 6. 6. 6. 5. 7. 5. 6. 3. 8. 7. 6. 5. 6. 6.
      6. 6. 6. 6. 6. 6. 6. 4. 6. 8. 7. 5. 5. 6. 7. 8. 6. 6. 5. 13. 17.
      20. 17. 6. 6. 6. 6. 6. 6. 6. 6. 6. 5. 7. 9. 9. 7. 5. 5. 5. 4. 5.
      11. 20. 36. 43. 39. 24. 7. 6. 6. 6. 6. 7. 8. 8. 7. 8. 6. 6. 7. 7.
      6. 6. 8. 10. 23. 35. 39. 40. 38. 40. 30. 6. 6. 5. 5. 6. 7. 7. 8.
      6. 6. 5. 6. 7. 5. 6. 15. 27. 38. 41. 41. 40. 40. 39. 39. 24. 6. 6.
      6. 6. 6. 6. 6. 6. 6. 9. 7. 7. 8. 4. 5. 22. 43. 40. 40. 39. 40. 42.
      41. 43. 26. 7. 7. 6. 6. 6. 6. 6. 6. 6. 17. 9. 4. 6. 5. 7. 21. 40.
      43. 38. 31. 32. 37. 39. 41. 24. 6. 6. 6. 6. 6. 6. 6. 6. 7. 31. 11.
      8. 5. 5. 7. 21. 39. 28. 18. 9. 26. 38. 39. 41. 25. 6. 6. 6. 6. 6.
      6. 5. 6. 10. 30. 9. 7. 8. 8. 5. 4. 7. 10. 6. 5. 28. 41. 40. 40.
      23. 6. 6. 6. 6. 6. 6. 6. 7. 11. 38. 11. 5. 5. 6. 6. 7. 5. 4. 3. 5.
      28. 40. 40. 40. 24. 6. 6. 6. 6. 6. 5. 6. 8. 13. 41. 12. 8. 7. 5.
      5. 7. 6. 8. 6. 7. 28. 39. 39. 40. 24. 6. 6. 6. 6. 5. 5. 7. 9. 13.
      37. 10. 9. 10. 6. 3. 5. 6. 5. 5. 7. 29. 40. 39. 39. 21. 6. 6. 6.
      6. 5. 5. 7. 9. 15. 33. 8. 6. 8. 7. 6. 7. 9. 5. 5. 6. 28. 40. 40.
      39. 21. 6. 6. 6. 6. 6. 6. 7. 9. 12. 26. 8. 8. 7. 7. 6. 4. 2. 7. 7.
      7. 28. 39. 40. 40. 22. 7. 6. 6. 6. 6. 6. 7. 8. 15. 22. 10. 10. 5.
      5. 7. 7. 7. 4. 5. 7. 29. 40. 40. 39. 20. 7. 6. 6. 6. 6. 6. 6. 7.
      11. 17. 9. 6. 8. 8. 5. 5. 7. 6. 8. 6. 30. 39. 37. 37. 23. 6. 6. 6.
      6. 6. 6. 6. 7. 10. 12. 7. 6. 7. 6. 5. 5. 5. 5. 5. 5. 29. 40. 42.
      40. 23. 6. 6. 6. 6. 6. 6. 6. 6. 8. 7. 6. 6. 6. 5. 5. 6. 5. 6. 6.
      6. 28. 38. 40. 37. 20. 6. 6. 6. 6. 6. 6. 6. 6. 6. 9. 6. 6. 6. 5.
      6. 6. 5. 6. 8. 7. 31. 37. 35. 39. 23. 6. 6. 6. 6. 6. 6. 6. 6. 6.
      12. 7. 5. 7. 6. 5. 6. 6. 5. 8. 4. 33. 36. 28. 37. 20. 6. 6. 6. 6.
      6. 6. 6. 6. 6. 13. 8. 5. 6. 6. 5. 6. 6. 7. 8. 4. 34. 37. 30. 38.
      19. 6. 6. 6. 6. 6. 6. 6. 6. 6. 11. 8. 7. 6. 5. 5. 6. 6. 6. 6. 7.
      29. 31. 32. 38. 23. 6. 6. 6. 6. 6. 6. 7. 7. 6. 7. 8. 8. 7. 5. 6.
      7. 5. 6. 4. 8. 18. 13. 18. 21. 11. 6. 6. 6. 6. 6. 7. 7. 7. 6. 8.
      7. 6. 6. 5. 6. 6. 7. 8. 6. 6. 6. 5. 5. 6. 6. 6. 6. 6. 6. 6. 6. 6.
      6. 6.</_>
    <_>
      9. 9. 8. 8. 10. 9. 7. 7. 10. 8. 7. 9. 7. 5. 9. 9. 8. 8. 8. 8. 8.
      7. 7. 8. 6. 7. 8. 6. 5. 6. 6. 5. 6. 6. 4. 3. 7. 8. 7. 7. 3. 6. 6.
      6. 6. 5. 5. 5. 6. 6. 6. 7. 6. 5. 7. 7. 6. 7. 8. 7. 4. 6. 9. 15.
      19. 16. 6. 5. 5. 5. 5. 5. 6. 7. 6. 6. 7. 8. 7. 8. 6. 5. 6. 4. 5.
      8. 18. 32. 41. 38. 26. 7. 6. 6. 6. 6. 7. 8. 9. 6. 6. 7. 7. 7. 6.
      4. 5. 9. 6. 20. 32. 39. 40. 40. 39. 32. 7. 6. 5. 6. 6. 6. 7. 8. 6.
      7. 7. 6. 6. 6. 5. 13. 25. 37. 40. 39. 39. 40. 41. 38. 27. 7. 6. 5.
      5. 5. 5. 5. 6. 6. 10. 7. 6. 7. 6. 7. 21. 40. 42. 42. 39. 39. 41.
      42. 40. 30. 7. 6. 5. 6. 6. 6. 5. 6. 7. 13. 9. 7. 8. 5. 5. 20. 42.
      40. 38. 33. 34. 38. 42. 39. 28. 6. 5. 5. 6. 7. 7. 6. 6. 9. 31. 10.
      9. 7. 6. 7. 21. 37. 30. 19. 10. 22. 39. 40. 42. 28. 7. 6. 6. 6. 6.
      5. 6. 8. 10. 37. 11. 6. 7. 7. 6. 7. 9. 11. 6. 5. 23. 41. 41. 40.
      25. 7. 6. 6. 6. 6. 5. 6. 8. 11. 44. 14. 7. 6. 5. 5. 7. 5. 4. 3. 5.
      23. 41. 40. 40. 26. 7. 6. 5. 6. 6. 5. 6. 8. 14. 41. 11. 8. 10. 6.
      5. 8. 7. 8. 6. 7. 23. 40. 39. 40. 27. 7. 6. 5. 6. 6. 6. 7. 9. 15.
      46. 11. 7. 10. 8. 5. 6. 4. 6. 5. 7. 24. 40. 40. 40. 26. 7. 6. 6.
      6. 6. 6. 7. 9. 15. 44. 11. 6. 8. 8. 5. 6. 6. 6. 5. 6. 22. 40. 41.
      40. 25. 7. 6. 6. 6. 6. 6. 7. 9. 14. 27. 6. 8. 10. 9. 6. 5. 4. 8.
      6. 7. 22. 39. 40. 40. 25. 7. 6. 5. 6. 6. 5. 7. 8. 13. 27. 10. 9.
      7. 7. 7. 7. 7. 5. 5. 8. 24. 40. 40. 38. 22. 6. 5. 5. 6. 6. 5. 6.
      8. 11. 21. 11. 6. 8. 8. 6. 5. 6. 6. 6. 3. 26. 36. 39. 38. 25. 6.
      6. 6. 6. 6. 6. 6. 6. 10. 12. 7. 5. 7. 7. 7. 8. 7. 5. 6. 7. 25. 37.
      42. 40. 25. 6. 6. 6. 6. 6. 6. 6. 6. 8. 9. 7. 7. 7. 5. 6. 6. 4. 8.
      5. 7. 23. 38. 40. 38. 22. 7. 6. 6. 6. 6. 6. 6. 6. 7. 7. 6. 6. 7.
      5. 6. 7. 7. 8. 4. 4. 25. 39. 33. 38. 26. 7. 7. 6. 6. 6. 6. 6. 6.
      6. 12. 7. 6. 7. 6. 5. 7. 8. 5. 7. 6. 27. 37. 25. 36. 24. 7. 6. 6.
      6. 6. 6. 6. 6. 5. 16. 10. 8. 8. 6. 4. 5. 6. 4. 10. 6. 26. 36. 32.
      40. 22. 6. 6. 6. 6. 6. 6. 6. 7. 6. 10. 7. 7. 7. 6. 6. 8. 7. 5. 7.
      4. 20. 29. 34. 36. 23. 6. 6. 6. 6. 6. 6. 7. 7. 6. 7. 8. 9. 8. 5.
      6. 7. 4. 8. 5. 4. 12. 9. 10. 9. 8. 6. 6. 6. 6. 6. 6. 7. 7. 6. 8.
      7. 6. 7. 8. 6. 5. 5. 8. 6. 5. 5. 6. 6. 6. 6. 6. 6. 6. 6. 6. 5. 5.
      5. 5.</_>
    <_>
      9. 8. 7. 8. 9. 9. 8. 7. 7. 8. 9. 5. 9. 6. 6. 9. 7. 7. 7. 6. 7. 7.
      7. 8. 6. 7. 6. 5. 5. 6. 6. 6. 5. 7. 6. 7. 4. 8. 7. 5. 3. 6. 6. 6.
      6. 5. 6. 6. 6. 6. 6. 8. 9. 8. 6. 6. 7. 7. 5. 4. 6. 7. 14. 19. 23.
      16. 6. 6. 6. 6. 6. 6. 6. 7. 6. 5. 7. 8. 8. 6. 4. 4. 4. 6. 4. 12.
      23. 36. 43. 39. 19. 6. 6. 6. 6. 7. 7. 8. 8. 6. 8. 6. 5. 5. 5. 5.
      6. 8. 13. 22. 36. 41. 39. 38. 39. 23. 6. 6. 6. 6. 6. 7. 7. 7. 6.
      8. 6. 7. 7. 5. 6. 17. 30. 39. 38. 39. 39. 40. 40. 40. 21. 6. 6. 6.
      6. 5. 6. 6. 6. 6. 8. 7. 7. 8. 3. 5. 22. 43. 41. 41. 40. 40. 42.
      40. 41. 22. 7. 7. 6. 6. 6. 6. 6. 6. 7. 17. 10. 6. 7. 6. 7. 21. 40.
      41. 38. 32. 32. 38. 39. 40. 23. 7. 6. 6. 6. 6. 6. 6. 6. 9. 31. 11.
      8. 5. 4. 7. 21. 36. 29. 19. 9. 28. 37. 40. 41. 23. 6. 6. 6. 6. 6.
      5. 6. 8. 10. 26. 8. 7. 7. 7. 6. 7. 9. 8. 4. 3. 28. 38. 41. 40. 22.
      6. 6. 6. 6. 6. 5. 7. 8. 11. 32. 12. 8. 5. 6. 6. 6. 5. 7. 5. 6. 31.
      39. 40. 39. 22. 6. 6. 6. 6. 6. 6. 7. 9. 15. 29. 11. 9. 7. 7. 6. 6.
      7. 7. 6. 6. 31. 38. 40. 41. 25. 6. 6. 6. 6. 6. 6. 7. 9. 17. 28.
      10. 9. 9. 8. 5. 4. 6. 5. 4. 6. 31. 40. 41. 40. 22. 6. 6. 6. 6. 6.
      6. 8. 9. 16. 33. 11. 7. 6. 7. 6. 6. 8. 7. 6. 7. 32. 40. 41. 39.
      21. 6. 6. 6. 6. 6. 6. 8. 9. 14. 26. 8. 7. 6. 7. 6. 5. 5. 6. 4. 5.
      30. 38. 40. 39. 22. 6. 6. 6. 6. 6. 6. 7. 9. 14. 25. 10. 11. 6. 5.
      6. 6. 6. 7. 6. 8. 33. 41. 40. 38. 19. 6. 6. 6. 6. 6. 6. 7. 9. 13.
      20. 11. 7. 6. 6. 6. 5. 6. 7. 4. 6. 28. 40. 39. 38. 22. 6. 6. 6. 6.
      6. 6. 7. 8. 11. 10. 6. 8. 8. 7. 8. 6. 6. 7. 8. 7. 31. 39. 41. 39.
      22. 6. 7. 6. 6. 6. 6. 7. 7. 9. 10. 8. 8. 4. 2. 5. 6. 7. 4. 7. 4.
      32. 37. 39. 40. 21. 6. 6. 6. 6. 6. 6. 6. 7. 8. 7. 5. 7. 6. 5. 7.
      6. 6. 5. 8. 5. 34. 38. 36. 40. 21. 6. 6. 6. 6. 6. 6. 6. 7. 7. 12.
      6. 6. 7. 7. 7. 5. 6. 6. 6. 6. 33. 38. 30. 37. 19. 6. 6. 5. 6. 6.
      6. 6. 7. 5. 19. 9. 6. 5. 5. 5. 4. 6. 6. 3. 7. 31. 35. 29. 38. 21.
      7. 6. 6. 6. 6. 6. 6. 6. 6. 9. 5. 8. 9. 8. 8. 5. 6. 7. 5. 8. 30.
      30. 31. 38. 23. 7. 6. 6. 6. 6. 7. 7. 6. 6. 8. 7. 10. 7. 4. 6. 6.
      6. 6. 5. 6. 24. 19. 25. 30. 14. 6. 6. 6. 6. 7. 8. 7. 7. 6. 7. 8.
      7. 6. 7. 6. 6. 6. 7. 6. 6. 6. 6. 6. 6. 5. 6. 6. 6. 6. 6. 6. 6. 5.
      5.</_>
    <_>
      9. 10. 11. 10. 9. 6. 10. 8. 8. 11. 6. 4. 11. 6. 7. 7. 6. 6. 6. 6.
      6. 5. 5. 5. 6. 7. 7. 6. 6. 6. 5. 6. 6. 3. 8. 7. 6. 9. 4. 7. 6. 6.
      6. 6. 6. 6. 6. 6. 7. 6. 6. 6. 5. 5. 6. 7. 4. 6. 9. 5. 2. 8. 20.
      23. 24. 9. 6. 6. 6. 6. 6. 7. 7. 8. 6. 7. 7. 8. 8. 7. 7. 2. 6. 3.
      9. 18. 29. 38. 39. 36. 10. 6. 6. 6. 6. 6. 7. 7. 8. 6. 6. 7. 8. 7.
      5. 4. 5. 10. 13. 24. 35. 42. 41. 40. 39. 8. 6. 6. 6. 6. 6. 6. 6.
      6. 6. 6. 5. 7. 6. 6. 6. 20. 27. 37. 40. 38. 39. 38. 40. 41. 8. 5.
      6. 6. 6. 6. 6. 6. 5. 6. 9. 6. 7. 6. 8. 7. 35. 40. 40. 41. 38. 41.
      41. 39. 39. 9. 6. 6. 6. 6. 6. 6. 6. 6. 7. 13. 7. 7. 5. 6. 4. 38.
      40. 40. 35. 29. 36. 41. 39. 38. 9. 6. 6. 6. 5. 6. 6. 7. 7. 8. 21.
      11. 6. 6. 4. 9. 33. 35. 25. 14. 14. 39. 40. 41. 38. 10. 6. 5. 6.
      6. 6. 5. 6. 7. 11. 23. 10. 7. 9. 6. 5. 16. 13. 11. 6. 12. 38. 41.
      42. 39. 9. 6. 6. 6. 6. 6. 6. 6. 8. 12. 32. 11. 7. 8. 6. 5. 7. 3.
      4. 3. 13. 39. 40. 41. 38. 8. 6. 6. 5. 6. 6. 6. 7. 8. 13. 39. 11.
      7. 5. 5. 7. 7. 7. 5. 6. 15. 39. 39. 41. 39. 9. 6. 6. 5. 5. 5. 6.
      7. 9. 17. 38. 10. 8. 7. 6. 6. 5. 6. 6. 6. 14. 38. 38. 41. 39. 10.
      7. 6. 5. 5. 5. 6. 8. 9. 16. 36. 9. 8. 8. 7. 5. 5. 6. 6. 5. 14. 38.
      38. 41. 38. 8. 6. 6. 5. 6. 6. 6. 7. 9. 13. 35. 10. 7. 7. 6. 5. 7.
      7. 6. 6. 15. 40. 39. 40. 37. 7. 6. 6. 6. 6. 6. 6. 7. 9. 14. 35.
      11. 6. 7. 7. 5. 7. 4. 5. 5. 14. 40. 39. 39. 37. 9. 6. 6. 6. 6. 6.
      6. 7. 8. 13. 25. 12. 5. 6. 7. 6. 5. 5. 6. 3. 14. 37. 38. 43. 37.
      9. 6. 6. 6. 6. 6. 7. 7. 7. 11. 12. 8. 7. 7. 6. 5. 6. 6. 9. 6. 14.
      38. 38. 41. 39. 10. 6. 6. 6. 6. 6. 6. 6. 7. 9. 5. 5. 7. 7. 5. 5.
      7. 6. 6. 5. 13. 39. 39. 39. 38. 9. 6. 6. 6. 6. 6. 6. 6. 6. 8. 11.
      7. 5. 5. 5. 6. 7. 5. 5. 6. 12. 40. 39. 36. 38. 8. 6. 6. 6. 6. 5.
      5. 6. 6. 6. 16. 9. 4. 5. 6. 6. 6. 5. 7. 7. 11. 36. 34. 32. 36. 8.
      6. 6. 6. 6. 5. 5. 6. 6. 6. 13. 8. 6. 7. 6. 5. 6. 6. 4. 6. 13. 37.
      34. 35. 37. 10. 6. 6. 6. 6. 6. 6. 6. 6. 6. 8. 7. 8. 8. 6. 5. 6. 6.
      5. 6. 15. 34. 31. 35. 37. 11. 6. 6. 6. 6. 6. 6. 6. 7. 6. 7. 7. 8.
      7. 5. 7. 7. 5. 8. 4. 9. 21. 15. 24. 27. 5. 6. 6. 6. 6. 6. 7. 7. 7.
      6. 9. 9. 7. 7. 4. 7. 5. 6. 7. 6. 6. 6. 6. 6. 6. 5. 5. 6. 6. 6. 6.
      6. 6. 6. 6.</_>
    <_>
      9. 7. 6. 5. 4. 8. 6. 5. 5. 5. 7. 6. 6. 7. 4. 8. 6. 6. 6. 6. 6. 6.
      6. 6. 6. 3. 4. 7. 6. 5. 6. 5. 4. 7. 8. 5. 5. 11. 17. 19. 10. 6. 5.
      5. 5. 6. 6. 7. 8. 6. 8. 9. 8. 5. 6. 5. 6. 8. 6. 3. 6. 23. 38. 36.
      36. 17. 6. 5. 5. 5. 6. 7. 8. 9. 6. 6. 8. 7. 6. 9. 4. 4. 4. 5. 16.
      31. 37. 41. 37. 39. 13. 6. 6. 6. 6. 6. 6. 7. 8. 6. 5. 6. 6. 5. 8.
      4. 13. 16. 31. 36. 45. 39. 38. 39. 40. 15. 6. 6. 6. 6. 6. 6. 6. 6.
      6. 7. 6. 6. 4. 5. 6. 29. 39. 42. 36. 39. 38. 40. 41. 38. 16. 5. 6.
      6. 6. 6. 6. 6. 6. 6. 7. 4. 7. 7. 6. 7. 33. 41. 37. 42. 41. 40. 39.
      41. 40. 16. 6. 6. 6. 6. 6. 6. 6. 6. 8. 17. 8. 7. 6. 5. 6. 33. 38.
      42. 35. 21. 33. 41. 39. 40. 16. 7. 6. 6. 5. 5. 5. 6. 6. 9. 34. 10.
      8. 5. 4. 9. 29. 35. 19. 13. 11. 35. 40. 41. 38. 16. 6. 6. 6. 6. 6.
      6. 7. 8. 10. 41. 8. 6. 7. 9. 7. 10. 5. 9. 6. 9. 35. 41. 41. 39.
      17. 6. 6. 6. 6. 6. 6. 7. 8. 13. 55. 11. 6. 5. 6. 5. 6. 5. 4. 5.
      11. 37. 41. 40. 38. 16. 6. 6. 6. 6. 6. 6. 7. 9. 15. 59. 10. 7. 7.
      6. 5. 5. 9. 6. 7. 12. 37. 40. 39. 38. 16. 6. 6. 6. 6. 6. 6. 8. 9.
      16. 68. 11. 7. 7. 7. 7. 3. 5. 6. 6. 11. 35. 39. 40. 39. 17. 6. 6.
      6. 6. 6. 6. 8. 9. 15. 74. 15. 7. 6. 6. 7. 6. 7. 5. 6. 10. 35. 40.
      42. 39. 16. 7. 6. 6. 6. 6. 6. 7. 9. 16. 62. 10. 7. 8. 6. 5. 7. 6.
      6. 6. 11. 36. 40. 42. 39. 15. 7. 6. 6. 6. 6. 6. 7. 9. 17. 59. 10.
      7. 9. 6. 5. 7. 4. 5. 6. 10. 34. 39. 41. 39. 16. 7. 6. 6. 6. 5. 6.
      7. 9. 13. 65. 10. 7. 8. 9. 6. 7. 4. 6. 5. 10. 36. 40. 39. 38. 17.
      7. 6. 5. 5. 5. 6. 7. 7. 12. 36. 7. 8. 7. 6. 5. 6. 8. 5. 5. 10. 34.
      39. 41. 39. 16. 7. 6. 6. 5. 5. 6. 6. 7. 11. 12. 8. 8. 5. 5. 7. 5.
      6. 5. 6. 10. 33. 39. 42. 40. 16. 6. 6. 6. 6. 6. 6. 6. 6. 8. 6. 10.
      7. 7. 5. 8. 6. 4. 6. 6. 10. 34. 38. 40. 39. 17. 6. 6. 6. 6. 6. 6.
      6. 6. 9. 8. 9. 5. 9. 3. 5. 7. 7. 6. 5. 9. 34. 36. 35. 36. 18. 6.
      6. 6. 6. 6. 6. 6. 5. 5. 16. 9. 3. 8. 4. 6. 6. 6. 7. 5. 10. 34. 35.
      33. 35. 19. 6. 6. 6. 6. 6. 6. 6. 6. 7. 15. 9. 5. 6. 7. 7. 4. 5. 7.
      6. 10. 34. 35. 34. 36. 19. 6. 6. 6. 6. 6. 6. 6. 7. 5. 4. 8. 9. 6.
      7. 6. 3. 9. 6. 6. 9. 31. 34. 35. 36. 17. 7. 6. 6. 6. 6. 6. 7. 7.
      6. 7. 8. 8. 7. 6. 6. 6. 5. 6. 7. 7. 23. 18. 23. 25. 10. 6. 6. 6.
      6. 6. 7. 8. 7. 6.</_>
    <_>
      7. 8. 5. 6. 5. 9. 4. 6. 4. 6. 7. 4. 5. 7. 3. 8. 6. 6. 7. 6. 6. 5.
      6. 7. 6. 4. 6. 5. 6. 4. 6. 4. 7. 8. 7. 3. 5. 13. 15. 16. 12. 5. 6.
      6. 6. 6. 6. 8. 9. 6. 7. 8. 7. 9. 7. 7. 6. 7. 4. 5. 8. 21. 37. 38.
      37. 16. 6. 6. 6. 6. 6. 7. 8. 10. 6. 8. 7. 5. 8. 6. 5. 5. 4. 5. 15.
      28. 36. 42. 38. 38. 15. 6. 7. 6. 6. 6. 6. 7. 8. 6. 7. 5. 4. 7. 5.
      4. 12. 15. 30. 34. 43. 38. 40. 40. 40. 17. 6. 6. 6. 6. 6. 6. 6. 6.
      6. 8. 7. 7. 8. 6. 6. 27. 36. 39. 38. 40. 35. 38. 42. 39. 14. 6. 6.
      6. 6. 6. 6. 6. 6. 7. 9. 6. 6. 7. 5. 6. 32. 43. 37. 41. 39. 41. 41.
      39. 37. 17. 6. 6. 6. 6. 6. 6. 6. 6. 8. 13. 8. 5. 7. 6. 7. 31. 39.
      39. 36. 21. 32. 40. 40. 40. 17. 7. 7. 6. 6. 6. 6. 7. 7. 9. 23. 9.
      6. 7. 2. 8. 30. 35. 22. 10. 8. 35. 41. 39. 37. 18. 6. 6. 6. 6. 6.
      5. 6. 8. 11. 32. 10. 6. 8. 7. 6. 11. 4. 9. 5. 7. 34. 40. 41. 38.
      17. 6. 6. 6. 6. 5. 5. 6. 8. 10. 31. 9. 10. 10. 5. 3. 6. 5. 3. 4.
      10. 34. 39. 41. 39. 15. 6. 6. 6. 6. 5. 5. 7. 9. 14. 42. 10. 8. 6.
      5. 7. 7. 8. 5. 7. 11. 35. 38. 40. 38. 15. 6. 6. 6. 5. 5. 5. 7. 9.
      15. 47. 11. 7. 6. 7. 8. 4. 3. 6. 5. 9. 34. 39. 40. 39. 17. 6. 6.
      6. 5. 5. 5. 7. 9. 16. 40. 10. 10. 9. 5. 5. 5. 8. 6. 4. 9. 36. 41.
      40. 38. 17. 6. 6. 6. 6. 5. 6. 7. 9. 17. 43. 11. 7. 7. 6. 6. 6. 6.
      7. 5. 10. 36. 41. 40. 37. 15. 6. 6. 6. 6. 6. 6. 7. 9. 14. 39. 11.
      7. 8. 6. 5. 7. 5. 5. 5. 10. 35. 39. 40. 38. 15. 6. 6. 6. 6. 6. 6.
      7. 9. 13. 40. 13. 5. 8. 4. 5. 8. 6. 7. 4. 8. 36. 39. 37. 38. 16.
      6. 6. 6. 6. 5. 5. 7. 8. 11. 25. 8. 7. 9. 6. 6. 7. 4. 7. 5. 8. 35.
      39. 39. 40. 15. 5. 6. 6. 6. 5. 6. 7. 8. 10. 14. 8. 8. 7. 4. 6. 6.
      5. 6. 6. 9. 34. 39. 41. 41. 15. 5. 6. 6. 6. 6. 6. 7. 8. 9. 10. 7.
      8. 6. 5. 6. 6. 7. 6. 6. 9. 35. 38. 39. 40. 15. 5. 6. 6. 6. 6. 6.
      6. 7. 7. 8. 5. 6. 7. 8. 7. 4. 6. 6. 5. 9. 36. 37. 35. 37. 16. 5.
      6. 6. 6. 6. 6. 5. 5. 6. 14. 8. 6. 6. 7. 7. 4. 6. 6. 5. 9. 35. 35.
      32. 36. 16. 6. 6. 6. 6. 6. 6. 5. 5. 6. 16. 9. 8. 6. 4. 6. 5. 6. 6.
      6. 9. 34. 34. 33. 36. 16. 6. 6. 6. 6. 6. 6. 6. 6. 6. 8. 5. 8. 8.
      5. 7. 7. 5. 6. 7. 9. 32. 33. 34. 38. 15. 6. 6. 6. 6. 6. 7. 7. 7.
      6. 7. 9. 8. 7. 6. 5. 7. 6. 6. 6. 8. 24. 19. 26. 27. 10. 6. 6. 5.
      6. 6. 7. 7. 7. 6.</_>
    <_>
      8. 6. 5. 6. 7. 7. 6. 4. 5. 6. 6. 5. 7. 7. 5. 6. 6. 6. 6. 6. 6. 6.
      6. 6. 6. 4. 5. 5. 5. 5. 5. 6. 6. 6. 5. 6. 4. 5. 9. 10. 10. 6. 6.
      6. 6. 6. 6. 7. 7. 6. 7. 8. 9. 8. 7. 7. 7. 7. 6. 4. 7. 16. 27. 37.
      35. 23. 6. 6. 6. 6. 6. 7. 8. 8. 6. 7. 7. 7. 7. 6. 5. 5. 4. 6. 11.
      20. 30. 36. 42. 40. 27. 6. 6. 6. 6. 6. 7. 8. 8. 6. 6. 6. 6. 6. 5.
      5. 9. 14. 25. 31. 37. 41. 39. 40. 39. 26. 6. 6. 6. 6. 6. 6. 6. 7.
      6. 7. 7. 8. 8. 5. 7. 19. 34. 37. 40. 38. 41. 41. 41. 38. 24. 6. 6.
      6. 6. 6. 6. 6. 6. 7. 10. 6. 6. 6. 4. 6. 22. 41. 38. 42. 38. 39.
      40. 38. 37. 27. 6. 6. 6. 6. 6. 6. 6. 6. 8. 17. 9. 5. 7. 6. 7. 21.
      38. 39. 36. 23. 27. 38. 42. 39. 26. 7. 6. 6. 6. 6. 6. 7. 7. 9. 29.
      11. 7. 6. 6. 7. 20. 31. 21. 13. 7. 27. 39. 39. 40. 25. 7. 6. 6. 6.
      6. 6. 7. 9. 11. 29. 11. 7. 6. 5. 3. 6. 7. 10. 5. 5. 27. 40. 39.
      40. 25. 7. 6. 6. 6. 6. 6. 7. 9. 13. 28. 10. 7. 6. 8. 8. 9. 6. 5.
      4. 6. 29. 40. 38. 39. 24. 6. 6. 6. 6. 6. 6. 7. 9. 15. 34. 16. 11.
      7. 5. 3. 5. 4. 7. 6. 8. 29. 40. 38. 40. 25. 6. 6. 6. 6. 6. 6. 8.
      9. 16. 28. 10. 7. 7. 7. 4. 7. 8. 7. 5. 6. 28. 39. 39. 41. 25. 6.
      6. 6. 6. 6. 6. 8. 9. 15. 33. 13. 8. 8. 8. 5. 6. 6. 6. 5. 6. 28.
      40. 40. 40. 23. 6. 6. 6. 6. 6. 6. 7. 9. 16. 31. 12. 7. 5. 6. 5. 7.
      5. 6. 6. 7. 29. 40. 40. 39. 21. 6. 6. 6. 6. 6. 6. 7. 8. 15. 23.
      10. 9. 6. 6. 6. 7. 4. 6. 6. 7. 28. 40. 40. 40. 22. 6. 6. 6. 6. 6.
      6. 7. 8. 13. 25. 12. 5. 8. 8. 6. 5. 6. 5. 9. 3. 30. 39. 37. 40.
      24. 6. 6. 7. 7. 6. 5. 6. 8. 11. 16. 9. 6. 7. 7. 6. 6. 5. 5. 7. 3.
      28. 37. 40. 39. 24. 6. 6. 6. 6. 6. 5. 6. 8. 10. 7. 7. 7. 7. 5. 6.
      7. 5. 6. 6. 6. 29. 37. 43. 39. 25. 7. 6. 6. 6. 6. 6. 6. 7. 9. 6.
      6. 7. 6. 5. 6. 7. 5. 7. 6. 7. 29. 38. 38. 38. 23. 8. 6. 6. 6. 6.
      6. 6. 6. 7. 11. 7. 6. 6. 5. 6. 7. 6. 6. 4. 6. 30. 38. 29. 37. 21.
      7. 6. 5. 5. 6. 6. 6. 6. 6. 14. 8. 5. 6. 6. 6. 6. 6. 6. 5. 6. 31.
      36. 27. 39. 22. 7. 6. 5. 5. 6. 6. 6. 6. 6. 11. 8. 7. 8. 6. 6. 6.
      6. 6. 7. 7. 30. 31. 31. 38. 23. 7. 6. 5. 6. 6. 6. 7. 7. 6. 7. 7.
      9. 9. 6. 6. 7. 6. 6. 6. 5. 28. 24. 34. 35. 21. 6. 6. 6. 6. 7. 7.
      7. 8. 6. 7. 8. 8. 6. 6. 6. 6. 6. 5. 5. 5. 9. 9. 8. 10. 8. 5. 6. 5.
      5. 5. 6. 6. 6. 5.</_>
    <_>
      9. 10. 9. 11. 10. 7. 8. 7. 6. 9. 8. 4. 9. 7. 7. 6. 7. 7. 6. 7. 7.
      7. 6. 5. 6. 7. 7. 5. 6. 6. 6. 6. 5. 5. 6. 7. 8. 9. 3. 5. 7. 6. 6.
      6. 6. 6. 7. 7. 7. 6. 6. 6. 7. 6. 5. 6. 5. 7. 8. 5. 2. 6. 18. 26.
      26. 11. 6. 6. 6. 6. 6. 7. 9. 10. 7. 7. 6. 9. 7. 6. 7. 4. 5. 6. 4.
      14. 30. 40. 38. 36. 20. 6. 6. 6. 6. 6. 7. 9. 11. 8. 7. 6. 6. 6. 6.
      7. 7. 8. 13. 26. 37. 39. 39. 41. 40. 15. 5. 6. 6. 6. 5. 6. 8. 9.
      8. 4. 6. 6. 7. 5. 5. 18. 29. 40. 38. 37. 39. 39. 37. 38. 19. 5. 6.
      6. 6. 5. 6. 7. 8. 8. 5. 9. 6. 9. 6. 5. 28. 44. 38. 42. 39. 38. 40.
      40. 41. 18. 6. 6. 7. 6. 6. 6. 7. 8. 9. 13. 12. 1. 7. 7. 6. 28. 40.
      39. 35. 28. 34. 42. 39. 38. 18. 6. 6. 6. 5. 5. 6. 7. 8. 11. 23. 8.
      9. 4. 6. 7. 26. 39. 24. 12. 4. 37. 42. 39. 39. 17. 6. 6. 6. 6. 6.
      6. 7. 9. 14. 28. 9. 8. 6. 9. 4. 6. 4. 8. 5. 4. 37. 39. 38. 39. 17.
      6. 6. 6. 6. 6. 6. 8. 10. 16. 32. 11. 7. 5. 7. 5. 7. 5. 4. 6. 8.
      39. 40. 40. 41. 17. 6. 6. 6. 6. 6. 6. 8. 10. 16. 26. 10. 9. 7. 7.
      5. 7. 7. 6. 7. 7. 36. 39. 40. 40. 14. 6. 6. 6. 6. 6. 6. 8. 10. 16.
      25. 10. 8. 8. 7. 6. 5. 3. 6. 5. 5. 36. 39. 40. 40. 15. 6. 6. 6. 6.
      6. 6. 8. 10. 16. 28. 12. 7. 7. 6. 7. 8. 8. 6. 6. 7. 40. 41. 39.
      40. 17. 6. 6. 6. 6. 6. 6. 7. 9. 15. 25. 12. 9. 9. 5. 6. 5. 5. 5.
      5. 7. 39. 39. 37. 37. 14. 6. 6. 6. 6. 6. 6. 7. 9. 13. 25. 11. 7.
      8. 5. 7. 7. 6. 6. 6. 6. 37. 40. 40. 39. 13. 6. 6. 6. 6. 5. 5. 7.
      9. 12. 17. 9. 6. 8. 7. 5. 5. 7. 6. 5. 5. 38. 39. 37. 39. 13. 6. 6.
      6. 6. 6. 6. 7. 7. 11. 12. 7. 6. 7. 6. 5. 6. 6. 8. 6. 8. 37. 37.
      40. 40. 16. 6. 6. 6. 6. 6. 6. 6. 6. 9. 8. 6. 6. 6. 5. 6. 6. 5. 6.
      4. 7. 36. 38. 41. 39. 13. 6. 6. 6. 6. 6. 6. 6. 6. 7. 9. 6. 6. 6.
      5. 6. 6. 5. 5. 5. 8. 38. 37. 36. 37. 13. 6. 6. 6. 6. 6. 6. 6. 6.
      7. 13. 7. 5. 6. 6. 6. 6. 5. 5. 8. 7. 38. 32. 27. 36. 15. 6. 6. 6.
      6. 6. 6. 6. 6. 6. 14. 8. 6. 7. 6. 5. 6. 6. 5. 6. 6. 38. 35. 32.
      37. 15. 6. 6. 6. 6. 6. 6. 6. 6. 6. 10. 8. 7. 7. 6. 6. 6. 6. 8. 5.
      9. 32. 30. 35. 34. 13. 6. 6. 6. 6. 6. 6. 7. 7. 6. 6. 7. 9. 7. 5.
      6. 7. 5. 6. 3. 10. 19. 9. 20. 20. 8. 5. 6. 6. 6. 6. 7. 7. 7. 6. 7.
      7. 7. 5. 5. 6. 6. 6. 7. 6. 5. 6. 5. 5. 5. 6. 6. 6. 6. 6. 6. 5. 5.
      6. 6.</_>
    <_>
      7. 9. 10. 10. 10. 8. 7. 8. 9. 8. 7. 6. 7. 6. 10. 8. 8. 8. 7. 7. 8.
      8. 8. 9. 7. 7. 7. 5. 4. 7. 7. 5. 5. 6. 6. 6. 5. 6. 4. 7. 3. 6. 6.
      6. 5. 5. 6. 6. 6. 6. 5. 7. 6. 5. 6. 6. 6. 7. 4. 4. 5. 6. 10. 11.
      15. 10. 6. 6. 5. 5. 5. 6. 6. 7. 6. 5. 8. 9. 8. 7. 5. 5. 7. 9. 5.
      5. 14. 31. 39. 39. 26. 7. 7. 6. 6. 6. 7. 9. 9. 6. 7. 7. 6. 6. 7.
      5. 4. 7. 3. 14. 28. 35. 40. 38. 36. 26. 7. 6. 6. 6. 6. 7. 8. 9. 6.
      7. 6. 5. 6. 6. 6. 12. 22. 37. 38. 39. 36. 38. 38. 38. 28. 7. 6. 6.
      6. 6. 6. 6. 7. 5. 9. 7. 6. 7. 6. 6. 20. 39. 36. 39. 40. 38. 40.
      39. 37. 25. 7. 7. 6. 6. 6. 6. 6. 6. 6. 15. 9. 5. 6. 6. 6. 20. 39.
      40. 37. 32. 29. 36. 40. 39. 26. 6. 6. 6. 6. 6. 6. 6. 6. 8. 28. 10.
      7. 6. 6. 5. 18. 38. 31. 19. 10. 21. 38. 39. 40. 27. 7. 6. 6. 6. 5.
      5. 6. 7. 11. 23. 8. 8. 7. 8. 7. 6. 8. 8. 4. 3. 21. 40. 40. 38. 24.
      6. 6. 6. 6. 6. 6. 7. 8. 12. 32. 13. 10. 5. 4. 6. 7. 5. 6. 4. 6.
      24. 40. 39. 38. 24. 6. 6. 6. 6. 6. 6. 7. 9. 14. 38. 12. 8. 7. 5.
      5. 7. 7. 8. 6. 6. 22. 38. 38. 40. 27. 7. 6. 6. 6. 6. 6. 7. 8. 16.
      40. 11. 6. 8. 9. 7. 6. 5. 5. 4. 6. 22. 39. 39. 40. 26. 6. 6. 6. 6.
      6. 6. 7. 8. 15. 35. 13. 8. 5. 5. 6. 7. 7. 7. 6. 7. 24. 41. 40. 39.
      23. 6. 5. 5. 5. 6. 6. 7. 9. 15. 23. 9. 10. 6. 6. 4. 4. 5. 5. 4. 5.
      21. 38. 39. 39. 23. 6. 5. 5. 5. 5. 6. 7. 9. 12. 27. 11. 8. 6. 8.
      6. 4. 6. 6. 6. 7. 23. 39. 38. 37. 22. 6. 6. 6. 6. 5. 5. 6. 8. 9.
      17. 10. 5. 7. 8. 6. 5. 6. 5. 4. 6. 24. 38. 36. 39. 24. 6. 6. 6. 6.
      6. 7. 7. 7. 11. 9. 7. 7. 7. 7. 5. 6. 7. 5. 9. 6. 26. 37. 41. 41.
      22. 6. 6. 6. 6. 6. 6. 6. 6. 9. 6. 7. 7. 6. 5. 6. 6. 7. 4. 7. 4.
      24. 37. 36. 40. 21. 6. 6. 6. 6. 6. 5. 5. 6. 7. 12. 9. 6. 4. 6. 7.
      6. 5. 7. 5. 7. 23. 39. 26. 38. 23. 6. 6. 6. 6. 6. 5. 6. 6. 6. 16.
      10. 5. 5. 7. 7. 6. 5. 7. 4. 7. 22. 38. 25. 36. 22. 6. 6. 6. 6. 6.
      6. 6. 6. 6. 11. 8. 7. 8. 7. 6. 5. 7. 4. 6. 6. 22. 33. 34. 37. 23.
      6. 6. 6. 6. 6. 6. 7. 7. 6. 6. 7. 8. 7. 6. 6. 6. 6. 6. 8. 8. 18.
      22. 28. 29. 20. 6. 6. 6. 6. 6. 6. 6. 7. 6. 7. 8. 7. 5. 5. 7. 7. 5.
      7. 3. 6. 7. 6. 3. 7. 6. 6. 6. 6. 6. 6. 6. 6. 6. 5. 9. 9. 8. 6. 6.
      7. 7. 6. 7. 6. 6. 7. 7. 6. 6. 6. 6. 6. 6. 5. 5. 6. 6. 6. 7.</_>
    <_>
      8. 10. 10. 9. 9. 8. 7. 8. 6. 7. 9. 8. 8. 6. 9. 6. 8. 7. 6. 5. 5.
      6. 7. 8. 6. 8. 8. 5. 4. 7. 8. 6. 4. 6. 6. 7. 5. 5. 4. 9. 7. 6. 6.
      6. 6. 6. 6. 6. 6. 6. 5. 7. 6. 5. 6. 7. 6. 6. 4. 5. 7. 6. 7. 5. 9.
      4. 5. 6. 6. 6. 6. 7. 7. 7. 6. 5. 8. 9. 8. 7. 6. 4. 6. 9. 5. 4. 11.
      27. 35. 37. 26. 7. 6. 5. 5. 6. 7. 8. 9. 6. 7. 8. 7. 6. 7. 6. 5. 7.
      1. 12. 25. 33. 39. 39. 38. 29. 7. 7. 6. 5. 6. 7. 8. 8. 7. 7. 6. 5.
      5. 6. 6. 12. 23. 33. 36. 38. 37. 40. 38. 37. 25. 6. 6. 6. 6. 6. 6.
      5. 5. 6. 8. 7. 7. 7. 5. 6. 19. 38. 36. 39. 41. 38. 39. 39. 39. 29.
      6. 6. 6. 6. 6. 5. 5. 5. 7. 13. 9. 6. 7. 6. 6. 19. 38. 38. 37. 35.
      32. 37. 40. 39. 26. 7. 6. 6. 5. 5. 6. 7. 8. 8. 24. 9. 8. 7. 5. 5.
      20. 34. 32. 20. 10. 22. 38. 38. 39. 27. 7. 6. 6. 6. 6. 5. 6. 8.
      10. 32. 13. 8. 6. 6. 4. 7. 9. 9. 4. 3. 21. 40. 40. 40. 27. 7. 6.
      6. 6. 6. 5. 6. 8. 11. 27. 10. 7. 6. 7. 6. 6. 4. 6. 6. 7. 23. 39.
      39. 39. 25. 7. 6. 6. 6. 6. 5. 6. 8. 15. 27. 12. 10. 8. 6. 5. 7. 7.
      6. 7. 8. 21. 37. 38. 39. 25. 7. 6. 6. 6. 6. 6. 7. 9. 15. 34. 14.
      8. 7. 7. 5. 6. 5. 3. 4. 7. 22. 38. 40. 40. 24. 7. 6. 6. 6. 6. 6.
      7. 9. 19. 31. 11. 7. 7. 9. 6. 7. 6. 7. 7. 8. 23. 39. 40. 40. 23.
      7. 6. 6. 6. 6. 6. 7. 9. 14. 25. 11. 10. 9. 7. 5. 6. 6. 7. 6. 6.
      21. 37. 38. 39. 25. 7. 6. 6. 6. 6. 6. 7. 9. 13. 21. 9. 9. 7. 6. 6.
      7. 5. 6. 5. 7. 23. 39. 39. 38. 24. 7. 6. 5. 6. 6. 5. 7. 9. 12. 15.
      11. 8. 8. 7. 6. 5. 6. 6. 4. 7. 23. 37. 36. 38. 25. 6. 6. 6. 6. 6.
      6. 6. 7. 11. 6. 5. 6. 7. 6. 5. 5. 8. 6. 7. 5. 24. 36. 41. 41. 24.
      6. 6. 6. 6. 5. 6. 6. 7. 9. 9. 9. 8. 8. 7. 5. 5. 6. 6. 7. 5. 23.
      36. 37. 40. 23. 6. 6. 6. 6. 5. 5. 6. 7. 8. 9. 6. 3. 3. 6. 7. 6. 6.
      6. 4. 7. 22. 38. 26. 36. 23. 6. 6. 6. 6. 5. 6. 6. 7. 7. 18. 13. 9.
      7. 7. 7. 5. 4. 6. 3. 8. 22. 38. 27. 37. 25. 6. 6. 6. 6. 6. 6. 6.
      7. 6. 6. 6. 7. 6. 6. 6. 7. 7. 6. 6. 7. 20. 30. 33. 36. 25. 6. 6.
      6. 6. 6. 6. 6. 7. 6. 8. 9. 10. 9. 7. 6. 6. 6. 6. 6. 7. 14. 16. 22.
      22. 16. 6. 6. 6. 6. 6. 6. 6. 7. 6. 7. 7. 6. 5. 6. 7. 6. 5. 7. 3.
      8. 7. 5. 3. 5. 5. 6. 6. 6. 6. 5. 5. 6. 7. 6. 10. 9. 7. 6. 6. 7. 6.
      6. 7. 6. 6. 8. 8. 7. 5. 5. 6. 7. 7. 7. 7. 7. 6. 6. 6.</_>
    <_>
      9. 7. 5. 5. 6. 7. 7. 6. 6. 7. 7. 5. 9. 5. 6. 9. 6. 5. 5. 6. 7. 6.
      5. 5. 6. 7. 7. 7. 6. 6. 6. 6. 7. 7. 5. 5. 5. 9. 4. 5. 6. 6. 5. 5.
      6. 6. 6. 6. 7. 6. 5. 7. 8. 8. 7. 6. 6. 5. 6. 6. 6. 10. 24. 35. 35.
      18. 7. 6. 6. 6. 6. 7. 8. 9. 6. 7. 8. 9. 9. 8. 7. 5. 4. 4. 7. 18.
      32. 40. 39. 38. 22. 7. 6. 6. 6. 6. 7. 8. 10. 6. 6. 6. 6. 6. 4. 3.
      7. 11. 22. 33. 41. 40. 39. 41. 42. 18. 6. 6. 6. 6. 6. 5. 6. 8. 6.
      9. 8. 9. 8. 6. 8. 21. 36. 42. 39. 38. 41. 40. 37. 40. 23. 6. 6. 6.
      6. 6. 5. 6. 6. 7. 10. 6. 5. 5. 3. 6. 24. 43. 37. 41. 40. 40. 41.
      39. 41. 21. 7. 6. 6. 7. 7. 6. 6. 6. 8. 21. 12. 7. 7. 6. 7. 21. 39.
      43. 35. 23. 29. 40. 40. 40. 20. 7. 6. 5. 6. 6. 6. 6. 6. 8. 56. 12.
      7. 5. 7. 6. 23. 31. 19. 12. 7. 32. 40. 40. 40. 19. 6. 6. 6. 6. 6.
      5. 6. 7. 11. 52. 7. 8. 9. 9. 3. 7. 7. 10. 6. 5. 32. 40. 40. 40.
      20. 6. 5. 5. 6. 6. 6. 7. 8. 12. 64. 11. 8. 7. 7. 4. 6. 5. 6. 5. 6.
      34. 41. 39. 40. 20. 6. 5. 5. 5. 6. 6. 7. 9. 14. 67. 12. 9. 7. 6.
      7. 7. 6. 7. 6. 8. 34. 40. 39. 40. 21. 7. 6. 6. 5. 5. 6. 7. 9. 16.
      61. 12. 10. 8. 6. 8. 5. 5. 6. 5. 6. 33. 40. 39. 40. 20. 7. 6. 6.
      6. 5. 6. 7. 9. 16. 53. 12. 9. 7. 5. 7. 6. 7. 6. 5. 6. 33. 40. 40.
      39. 17. 6. 6. 5. 6. 6. 6. 7. 9. 15. 39. 10. 8. 8. 7. 6. 4. 5. 7.
      7. 7. 33. 40. 40. 39. 16. 6. 6. 6. 6. 6. 6. 7. 8. 15. 38. 13. 8.
      7. 6. 6. 5. 7. 6. 6. 6. 31. 39. 39. 40. 19. 6. 6. 6. 6. 6. 6. 6.
      7. 13. 24. 13. 6. 7. 7. 5. 6. 7. 5. 7. 5. 32. 38. 40. 38. 19. 7.
      6. 6. 5. 5. 6. 7. 7. 12. 14. 9. 7. 8. 7. 6. 6. 5. 6. 7. 9. 33. 39.
      41. 38. 19. 6. 6. 6. 6. 6. 6. 6. 7. 11. 7. 6. 7. 8. 6. 6. 6. 5. 5.
      4. 9. 32. 39. 39. 38. 19. 6. 6. 6. 6. 6. 6. 6. 6. 8. 9. 7. 7. 7.
      5. 5. 6. 6. 7. 5. 8. 33. 40. 34. 39. 20. 6. 6. 6. 6. 6. 6. 6. 6.
      7. 14. 8. 6. 6. 6. 5. 6. 6. 7. 5. 5. 35. 39. 28. 37. 17. 6. 6. 6.
      6. 6. 6. 6. 6. 6. 13. 7. 5. 7. 7. 6. 6. 5. 5. 5. 6. 37. 38. 29.
      39. 18. 6. 6. 6. 6. 6. 6. 6. 6. 6. 9. 7. 7. 8. 6. 6. 6. 6. 7. 6.
      9. 34. 31. 33. 38. 20. 6. 6. 5. 5. 6. 6. 7. 7. 6. 6. 8. 10. 8. 5.
      6. 8. 7. 7. 3. 8. 22. 16. 27. 27. 11. 6. 6. 5. 5. 6. 6. 7. 8. 6.
      8. 7. 6. 6. 6. 5. 6. 6. 7. 6. 6. 6. 6. 6. 6. 7. 6. 6. 6. 6. 6. 6.
      6. 6. 6.</_>
    <_>
      7. 10. 8. 8. 10. 7. 4. 9. 7. 7. 10. 9. 7. 8. 8. 9. 8. 8. 7. 7. 7.
      7. 6. 6. 6. 7. 8. 6. 7. 10. 9. 6. 8. 9. 8. 8. 5. 5. 10. 10. 5. 8.
      8. 7. 7. 7. 7. 7. 7. 7. 7. 7. 7. 5. 4. 3. 4. 6. 6. 5. 7. 9. 7. 5.
      6. 8. 7. 7. 6. 6. 6. 6. 7. 7. 6. 6. 6. 9. 9. 6. 5. 7. 8. 5. 6. 5.
      6. 15. 28. 31. 22. 6. 6. 6. 5. 5. 6. 7. 8. 6. 6. 5. 7. 10. 9. 7.
      6. 4. 6. 8. 15. 32. 42. 42. 39. 32. 7. 7. 6. 6. 6. 6. 8. 9. 7. 8.
      6. 6. 6. 5. 4. 9. 16. 23. 35. 39. 39. 38. 40. 43. 33. 7. 6. 6. 6.
      6. 6. 7. 8. 7. 8. 8. 6. 5. 5. 6. 21. 41. 41. 43. 40. 45. 46. 42.
      41. 31. 6. 6. 6. 5. 6. 6. 6. 6. 7. 10. 10. 7. 6. 6. 7. 20. 43. 39.
      43. 38. 39. 39. 39. 40. 29. 7. 7. 6. 6. 6. 6. 6. 5. 8. 23. 9. 9.
      9. 7. 6. 22. 40. 40. 28. 15. 23. 40. 41. 41. 28. 7. 6. 6. 7. 6. 5.
      6. 7. 9. 28. 11. 7. 7. 8. 6. 10. 15. 7. 7. 6. 22. 40. 41. 41. 29.
      7. 6. 6. 7. 6. 5. 6. 8. 11. 26. 12. 10. 8. 9. 8. 7. 5. 5. 5. 6.
      23. 42. 42. 42. 29. 8. 6. 6. 6. 6. 6. 7. 9. 13. 24. 12. 10. 7. 7.
      5. 7. 6. 9. 7. 6. 21. 40. 41. 42. 30. 8. 6. 6. 6. 6. 6. 7. 9. 15.
      32. 15. 9. 6. 7. 5. 5. 5. 3. 5. 7. 23. 40. 40. 41. 31. 8. 6. 5. 6.
      6. 5. 7. 9. 15. 33. 14. 8. 7. 9. 6. 6. 6. 6. 6. 7. 24. 42. 41. 40.
      27. 7. 6. 5. 6. 6. 5. 7. 9. 15. 23. 9. 7. 7. 7. 5. 5. 7. 7. 5. 4.
      21. 41. 42. 41. 27. 7. 6. 6. 6. 6. 5. 7. 9. 13. 24. 11. 9. 8. 8.
      6. 6. 6. 5. 6. 7. 23. 40. 39. 40. 28. 7. 6. 6. 6. 6. 5. 7. 8. 10.
      16. 11. 7. 7. 9. 7. 5. 5. 6. 6. 6. 26. 38. 39. 39. 31. 7. 7. 6. 6.
      6. 6. 7. 8. 10. 9. 8. 7. 8. 8. 6. 5. 6. 6. 7. 6. 23. 38. 40. 41.
      26. 6. 6. 6. 6. 6. 6. 7. 7. 8. 8. 7. 7. 7. 6. 5. 5. 6. 5. 6. 5.
      23. 42. 40. 44. 28. 6. 6. 6. 6. 6. 6. 6. 6. 7. 13. 9. 6. 5. 6. 6.
      6. 5. 6. 4. 6. 25. 40. 30. 37. 26. 6. 6. 6. 6. 6. 6. 6. 6. 6. 13.
      10. 7. 6. 6. 6. 6. 5. 6. 5. 8. 26. 40. 30. 38. 29. 7. 7. 6. 6. 6.
      6. 7. 7. 6. 7. 9. 10. 9. 7. 5. 6. 7. 5. 5. 9. 21. 35. 34. 39. 29.
      7. 7. 6. 6. 6. 6. 7. 7. 5. 6. 8. 10. 9. 7. 5. 6. 6. 7. 6. 7. 12.
      17. 19. 19. 13. 6. 6. 6. 6. 6. 6. 7. 7. 5. 9. 9. 8. 7. 6. 7. 6. 5.
      9. 5. 6. 8. 6. 4. 4. 5. 6. 6. 6. 6. 6. 6. 6. 6. 6. 10. 8. 7. 7. 7.
      7. 7. 7. 7. 7. 7. 7. 8. 8. 8. 7. 6. 9. 7. 7. 8. 7. 7. 6. 7.</_>
    <_>
      8. 8. 6. 5. 7. 8. 7. 6. 7. 8. 5. 6. 7. 8. 9. 6. 7. 6. 6. 6. 7. 6.
      5. 5. 6. 5. 8. 7. 5. 5. 5. 5. 6. 5. 6. 6. 8. 7. 4. 7. 8. 6. 6. 5.
      6. 6. 6. 6. 7. 6. 5. 9. 10. 9. 8. 7. 6. 6. 7. 7. 3. 8. 23. 35. 37.
      28. 7. 6. 6. 6. 6. 7. 8. 10. 6. 6. 7. 7. 7. 8. 6. 4. 3. 4. 6. 12.
      29. 41. 42. 41. 38. 7. 6. 6. 6. 6. 7. 8. 10. 6. 7. 7. 6. 6. 6. 5.
      7. 12. 17. 32. 40. 42. 42. 43. 42. 33. 7. 6. 6. 6. 6. 5. 6. 7. 5.
      8. 7. 7. 7. 6. 7. 18. 33. 41. 41. 39. 42. 43. 39. 38. 36. 7. 7. 6.
      7. 6. 5. 5. 5. 5. 9. 6. 5. 7. 6. 7. 22. 43. 41. 45. 43. 39. 40.
      42. 40. 31. 7. 7. 6. 7. 7. 6. 5. 5. 7. 16. 9. 6. 8. 8. 7. 20. 40.
      43. 39. 31. 31. 37. 41. 39. 31. 7. 6. 5. 6. 6. 6. 6. 6. 9. 29. 9.
      7. 7. 6. 6. 19. 39. 28. 18. 9. 23. 38. 41. 41. 30. 7. 6. 5. 6. 6.
      5. 6. 8. 10. 39. 14. 9. 9. 9. 6. 6. 10. 9. 6. 5. 26. 42. 44. 43.
      31. 7. 6. 6. 6. 6. 5. 6. 8. 14. 38. 12. 8. 8. 8. 8. 7. 4. 6. 5. 6.
      26. 41. 41. 40. 29. 7. 6. 6. 7. 6. 6. 7. 9. 13. 39. 12. 9. 8. 5.
      5. 8. 8. 6. 6. 6. 25. 40. 41. 41. 30. 7. 6. 6. 7. 6. 6. 7. 9. 14.
      41. 13. 9. 9. 7. 5. 6. 4. 5. 5. 7. 27. 42. 43. 41. 28. 7. 6. 6. 6.
      6. 6. 7. 9. 15. 38. 11. 8. 8. 7. 6. 6. 6. 7. 7. 7. 27. 42. 43. 40.
      26. 7. 6. 6. 6. 6. 6. 7. 9. 14. 32. 12. 10. 7. 6. 4. 5. 7. 6. 6.
      6. 26. 41. 44. 42. 28. 7. 6. 6. 6. 6. 6. 7. 9. 14. 25. 10. 9. 6.
      8. 8. 5. 5. 5. 6. 8. 27. 42. 42. 39. 23. 7. 6. 6. 6. 6. 6. 7. 9.
      12. 25. 12. 6. 8. 8. 5. 5. 6. 7. 6. 5. 28. 40. 43. 39. 26. 7. 6.
      6. 7. 7. 6. 7. 9. 10. 17. 11. 8. 8. 7. 6. 6. 6. 5. 8. 6. 30. 38.
      40. 39. 25. 7. 6. 6. 6. 6. 5. 5. 7. 10. 9. 9. 9. 8. 5. 6. 7. 5. 5.
      8. 4. 31. 40. 42. 42. 24. 7. 6. 6. 6. 6. 5. 5. 7. 8. 8. 8. 8. 7.
      5. 6. 7. 5. 6. 7. 3. 31. 41. 38. 42. 22. 7. 6. 6. 6. 6. 6. 7. 7.
      6. 12. 8. 6. 6. 5. 6. 7. 6. 6. 6. 7. 31. 38. 28. 38. 21. 6. 6. 6.
      6. 6. 7. 7. 7. 6. 14. 8. 6. 6. 6. 6. 6. 6. 7. 5. 8. 31. 37. 29.
      38. 23. 6. 6. 6. 5. 5. 6. 6. 6. 6. 11. 8. 7. 7. 6. 5. 6. 6. 7. 5.
      6. 30. 33. 35. 39. 22. 6. 7. 6. 5. 5. 7. 7. 6. 6. 7. 8. 9. 9. 6.
      5. 6. 5. 4. 6. 6. 28. 24. 33. 33. 19. 6. 6. 6. 5. 6. 8. 8. 7. 5.
      7. 8. 8. 6. 5. 6. 6. 6. 6. 5. 6. 6. 6. 6. 5. 6. 5. 6. 6. 5. 5. 6.
      7. 6. 6.</_>
    <_>
      8. 10. 10. 9. 8. 6. 6. 9. 9. 7. 11. 9. 9. 7. 9. 10. 10. 8. 7. 6.
      8. 8. 8. 7. 8. 9. 8. 7. 7. 10. 10. 7. 7. 8. 7. 6. 3. 9. 9. 7. 7.
      7. 7. 6. 6. 6. 6. 7. 7. 6. 8. 9. 6. 5. 6. 6. 6. 7. 8. 7. 12. 8. 5.
      6. 12. 6. 5. 6. 6. 6. 5. 6. 7. 9. 6. 6. 8. 8. 7. 7. 7. 7. 9. 3. 5.
      6. 15. 38. 48. 41. 27. 5. 6. 6. 6. 6. 7. 8. 10. 7. 7. 8. 8. 9. 9.
      7. 3. 3. 7. 14. 30. 39. 42. 45. 46. 24. 5. 5. 5. 6. 6. 7. 8. 8. 7.
      8. 8. 8. 7. 6. 5. 10. 18. 30. 40. 44. 44. 48. 45. 41. 25. 7. 6. 5.
      5. 6. 6. 6. 6. 6. 7. 8. 8. 8. 6. 9. 26. 46. 47. 45. 45. 45. 44.
      46. 49. 26. 7. 6. 6. 6. 6. 6. 6. 6. 7. 10. 9. 8. 8. 7. 9. 25. 46.
      44. 45. 43. 43. 44. 44. 45. 25. 6. 6. 6. 6. 6. 6. 7. 7. 8. 19. 10.
      9. 7. 7. 7. 25. 46. 43. 30. 14. 35. 42. 47. 45. 23. 7. 6. 6. 6. 6.
      6. 7. 8. 11. 26. 12. 8. 9. 10. 8. 14. 22. 9. 7. 5. 35. 43. 46. 45.
      24. 7. 6. 6. 6. 6. 6. 7. 8. 12. 38. 15. 8. 8. 8. 7. 8. 7. 4. 5. 6.
      37. 43. 44. 43. 23. 6. 6. 6. 6. 6. 6. 7. 9. 13. 46. 16. 9. 8. 6.
      5. 7. 6. 8. 7. 5. 35. 41. 44. 43. 23. 6. 6. 6. 6. 6. 6. 7. 9. 15.
      45. 13. 9. 10. 8. 5. 6. 7. 5. 5. 5. 35. 43. 45. 43. 22. 6. 6. 6.
      6. 6. 6. 7. 9. 16. 46. 12. 8. 9. 8. 7. 6. 6. 6. 7. 9. 39. 44. 44.
      42. 21. 6. 6. 6. 6. 6. 6. 7. 9. 14. 43. 13. 9. 7. 7. 8. 6. 7. 5.
      6. 7. 37. 42. 43. 42. 22. 6. 6. 6. 6. 6. 6. 7. 9. 13. 35. 12. 11.
      7. 6. 8. 6. 6. 7. 6. 6. 37. 44. 45. 41. 19. 6. 6. 6. 6. 6. 6. 7.
      9. 14. 33. 14. 5. 8. 7. 5. 6. 7. 6. 5. 5. 42. 40. 41. 43. 20. 6.
      5. 5. 6. 7. 6. 7. 8. 11. 13. 6. 8. 12. 8. 5. 6. 6. 6. 5. 8. 34.
      43. 40. 44. 23. 6. 5. 5. 6. 6. 6. 6. 8. 9. 13. 7. 6. 7. 6. 7. 7.
      3. 5. 7. 6. 35. 43. 45. 38. 20. 6. 6. 5. 6. 6. 6. 6. 7. 8. 7. 7.
      9. 9. 6. 6. 8. 6. 4. 8. 5. 40. 41. 42. 38. 21. 6. 6. 6. 6. 6. 6.
      6. 7. 7. 11. 8. 7. 7. 6. 5. 6. 6. 6. 6. 8. 38. 38. 29. 40. 19. 6.
      6. 6. 6. 6. 6. 7. 6. 6. 18. 11. 4. 4. 7. 7. 5. 4. 8. 5. 7. 40. 38.
      34. 41. 19. 6. 6. 6. 6. 6. 7. 7. 6. 7. 5. 8. 10. 10. 9. 6. 5. 8.
      5. 5. 5. 34. 30. 38. 35. 20. 5. 6. 7. 6. 6. 7. 7. 7. 7. 8. 10. 8.
      6. 6. 6. 6. 6. 6. 5. 8. 12. 8. 13. 12. 6. 5. 6. 7. 6. 6. 8. 8. 7.
      6. 9. 9. 7. 7. 5. 7. 6. 6. 8. 6. 5. 6. 6. 6. 6. 6. 6. 6. 6. 6. 6.
      6. 6. 6. 6.</_>
    <_>
      10. 8. 7. 8. 9. 9. 7. 6. 6. 11. 9. 4. 9. 9. 8. 5. 8. 7. 7. 7. 6.
      5. 5. 6. 6. 7. 6. 5. 4. 4. 6. 8. 11. 7. 7. 7. 6. 8. 6. 9. 10. 7.
      6. 6. 6. 6. 6. 7. 8. 6. 8. 9. 11. 11. 10. 8. 6. 5. 8. 6. 7. 12.
      29. 41. 43. 27. 8. 6. 5. 5. 6. 7. 9. 10. 7. 8. 7. 7. 7. 8. 7. 8.
      8. 7. 8. 20. 38. 50. 50. 47. 31. 8. 7. 6. 6. 6. 7. 9. 10. 8. 8. 9.
      11. 11. 9. 5. 6. 9. 24. 38. 49. 49. 47. 49. 50. 26. 7. 6. 5. 5. 5.
      6. 6. 7. 7. 9. 7. 7. 6. 4. 9. 26. 44. 48. 47. 46. 48. 48. 45. 48.
      31. 7. 6. 6. 6. 6. 5. 5. 6. 6. 10. 7. 8. 9. 7. 10. 28. 50. 47. 50.
      46. 47. 49. 49. 50. 27. 7. 7. 6. 6. 6. 6. 6. 7. 7. 16. 10. 7. 9.
      8. 10. 27. 48. 50. 42. 31. 38. 48. 47. 47. 27. 7. 6. 5. 6. 6. 6.
      7. 8. 9. 27. 11. 9. 7. 6. 10. 28. 43. 25. 13. 6. 34. 46. 46. 47.
      28. 7. 6. 6. 6. 6. 6. 7. 8. 11. 30. 12. 10. 10. 10. 7. 8. 6. 9. 6.
      7. 38. 48. 46. 46. 27. 7. 6. 6. 6. 6. 6. 7. 8. 13. 29. 12. 8. 6.
      9. 9. 11. 8. 5. 4. 7. 37. 46. 46. 46. 27. 7. 6. 6. 6. 6. 6. 7. 9.
      14. 34. 16. 12. 9. 7. 5. 7. 6. 9. 6. 7. 35. 46. 47. 47. 25. 7. 6.
      6. 6. 6. 6. 8. 9. 15. 35. 13. 8. 8. 10. 7. 7. 7. 6. 5. 6. 36. 47.
      49. 47. 23. 7. 6. 6. 6. 6. 6. 8. 9. 16. 40. 16. 8. 8. 9. 5. 6. 7.
      4. 5. 8. 37. 46. 46. 46. 24. 7. 6. 6. 6. 6. 6. 8. 10. 17. 29. 12.
      9. 9. 9. 5. 6. 6. 7. 6. 8. 37. 45. 44. 44. 25. 7. 6. 6. 6. 6. 6.
      8. 10. 15. 30. 13. 10. 7. 7. 6. 7. 6. 6. 4. 6. 37. 46. 45. 44. 22.
      7. 7. 6. 6. 6. 6. 8. 10. 13. 28. 14. 5. 8. 8. 4. 4. 7. 5. 4. 7.
      34. 45. 43. 47. 21. 7. 6. 5. 6. 6. 7. 7. 7. 11. 17. 9. 6. 8. 7. 6.
      7. 7. 6. 6. 9. 36. 42. 44. 46. 24. 7. 6. 6. 6. 6. 7. 7. 7. 10. 10.
      9. 9. 9. 6. 6. 5. 4. 6. 5. 5. 36. 41. 46. 45. 23. 6. 6. 6. 6. 6.
      6. 7. 7. 8. 7. 7. 8. 8. 6. 7. 8. 5. 7. 6. 4. 38. 44. 42. 44. 22.
      6. 6. 6. 6. 5. 6. 6. 7. 7. 11. 8. 6. 7. 6. 7. 7. 6. 4. 7. 6. 39.
      43. 30. 41. 21. 6. 6. 6. 6. 5. 6. 6. 7. 6. 16. 11. 7. 7. 6. 6. 6.
      4. 4. 7. 7. 37. 42. 30. 43. 23. 6. 6. 6. 6. 6. 6. 7. 7. 6. 10. 8.
      7. 7. 7. 7. 8. 6. 8. 8. 8. 33. 37. 36. 42. 23. 7. 6. 6. 6. 6. 7.
      7. 7. 6. 7. 9. 10. 9. 6. 6. 6. 4. 5. 5. 8. 24. 21. 30. 30. 15. 7.
      6. 5. 6. 6. 7. 7. 7. 6. 8. 9. 7. 6. 7. 7. 6. 6. 8. 6. 6. 6. 6. 7.
      7. 5. 7. 6. 6. 6. 6. 6. 6. 6. 6.</_>
    <_>
      9. 12. 9. 8. 10. 9. 8. 8. 7. 11. 11. 9. 9. 9. 8. 9. 9. 8. 8. 8. 8.
      8. 7. 7. 7. 8. 9. 7. 5. 7. 8. 7. 7. 7. 7. 5. 3. 6. 9. 7. 6. 8. 7.
      6. 6. 6. 6. 6. 7. 4. 6. 7. 9. 8. 7. 7. 8. 8. 8. 9. 7. 8. 16. 24.
      27. 27. 7. 7. 6. 6. 6. 6. 8. 9. 7. 8. 7. 10. 10. 9. 8. 6. 7. 8. 7.
      9. 19. 38. 50. 51. 47. 7. 6. 6. 6. 6. 7. 9. 11. 8. 12. 7. 7. 8. 9.
      8. 6. 11. 8. 24. 40. 49. 52. 50. 48. 47. 6. 6. 6. 6. 6. 6. 7. 9.
      7. 9. 6. 8. 7. 7. 7. 13. 33. 47. 50. 49. 48. 49. 50. 48. 46. 7. 6.
      6. 6. 6. 5. 6. 7. 7. 8. 8. 10. 8. 8. 7. 19. 51. 48. 50. 49. 48.
      50. 51. 48. 45. 8. 7. 6. 6. 6. 6. 6. 6. 7. 15. 10. 7. 6. 10. 9.
      17. 50. 50. 47. 40. 38. 44. 50. 48. 46. 8. 6. 5. 6. 6. 6. 7. 7. 8.
      27. 12. 11. 8. 7. 8. 22. 42. 40. 24. 8. 24. 48. 48. 49. 45. 8. 7.
      6. 6. 5. 5. 6. 8. 11. 30. 11. 9. 8. 10. 8. 7. 10. 9. 7. 5. 24. 48.
      48. 49. 44. 7. 7. 6. 6. 6. 6. 7. 9. 13. 38. 16. 10. 6. 7. 8. 8. 6.
      3. 8. 10. 26. 47. 47. 49. 42. 7. 7. 6. 6. 6. 6. 8. 10. 13. 36. 14.
      12. 9. 7. 8. 10. 9. 7. 9. 7. 23. 45. 47. 50. 42. 8. 7. 6. 6. 6. 6.
      7. 9. 15. 37. 13. 10. 10. 8. 7. 7. 5. 6. 6. 5. 24. 48. 49. 49. 41.
      7. 7. 6. 6. 6. 6. 7. 9. 16. 38. 14. 9. 7. 7. 7. 8. 9. 8. 8. 8. 27.
      49. 46. 46. 39. 7. 6. 6. 6. 6. 6. 8. 9. 14. 27. 10. 10. 8. 8. 7.
      6. 8. 6. 7. 6. 24. 46. 44. 45. 38. 7. 6. 6. 6. 6. 6. 8. 9. 14. 27.
      13. 11. 7. 9. 8. 5. 5. 6. 7. 6. 24. 47. 47. 46. 36. 8. 7. 6. 6. 6.
      6. 7. 9. 11. 22. 12. 7. 9. 10. 8. 7. 6. 7. 5. 7. 26. 42. 46. 44.
      39. 7. 6. 6. 7. 6. 7. 8. 8. 10. 15. 10. 7. 8. 7. 6. 6. 5. 5. 6. 7.
      25. 44. 49. 48. 36. 7. 5. 6. 6. 5. 6. 7. 7. 7. 9. 8. 9. 8. 7. 6.
      6. 5. 6. 7. 8. 25. 44. 43. 46. 33. 7. 5. 6. 6. 5. 6. 7. 6. 9. 9.
      7. 8. 9. 8. 8. 8. 6. 7. 5. 7. 26. 44. 35. 43. 36. 7. 6. 6. 6. 5.
      6. 7. 6. 7. 12. 7. 6. 8. 8. 7. 7. 6. 7. 6. 6. 24. 42. 32. 40. 32.
      7. 6. 6. 6. 5. 6. 7. 6. 6. 15. 8. 6. 8. 7. 6. 6. 5. 6. 8. 9. 24.
      42. 39. 43. 32. 7. 6. 6. 6. 5. 6. 8. 7. 8. 12. 10. 9. 8. 7. 6. 7.
      5. 5. 7. 8. 21. 33. 35. 37. 30. 7. 6. 6. 7. 6. 7. 8. 8. 6. 8. 9.
      11. 9. 6. 6. 8. 6. 7. 6. 4. 10. 11. 7. 6. 6. 6. 5. 5. 6. 5. 6. 8.
      7. 5. 7. 10. 7. 6. 6. 5. 6. 6. 8. 7. 6. 6. 6. 6. 6. 6. 6. 7. 6. 6.
      8. 7. 6. 7. 7.</_>
    <_>
      10. 10. 7. 10. 10. 7. 8. 10. 10. 12. 5. 9. 8. 10. 9. 8. 8. 8. 8.
      7. 7. 7. 6. 6. 6. 8. 8. 6. 6. 7. 8. 8. 8. 10. 5. 7. 9. 9. 3. 11.
      5. 7. 6. 6. 6. 6. 7. 7. 8. 6. 6. 9. 11. 7. 7. 8. 7. 6. 7. 8. 9.
      12. 34. 40. 40. 17. 7. 6. 6. 5. 6. 8. 9. 10. 7. 7. 8. 13. 10. 10.
      10. 8. 7. 8. 7. 23. 43. 50. 52. 50. 19. 7. 6. 6. 5. 6. 7. 9. 10.
      7. 11. 6. 9. 6. 6. 4. 8. 10. 24. 44. 51. 49. 51. 54. 50. 18. 7. 6.
      6. 5. 5. 6. 7. 8. 7. 7. 4. 8. 8. 9. 11. 35. 48. 54. 49. 51. 50.
      49. 46. 53. 19. 8. 7. 6. 6. 6. 6. 6. 7. 8. 11. 9. 10. 8. 5. 5. 39.
      54. 49. 53. 49. 48. 54. 51. 49. 18. 8. 8. 7. 6. 6. 6. 7. 7. 9. 16.
      12. 7. 8. 9. 8. 41. 50. 50. 43. 30. 45. 49. 52. 47. 19. 7. 7. 6.
      5. 6. 6. 7. 8. 9. 29. 11. 7. 10. 6. 12. 35. 38. 22. 11. 11. 47.
      48. 50. 50. 18. 7. 6. 6. 6. 6. 6. 7. 8. 12. 37. 14. 9. 10. 5. 4.
      12. 7. 12. 6. 10. 47. 49. 50. 50. 18. 7. 7. 6. 7. 6. 7. 8. 9. 13.
      39. 11. 7. 9. 9. 9. 11. 7. 7. 5. 12. 48. 50. 50. 49. 16. 7. 7. 6.
      7. 7. 7. 8. 10. 15. 45. 15. 11. 8. 7. 8. 6. 7. 7. 8. 13. 47. 49.
      51. 49. 16. 6. 6. 6. 6. 6. 7. 8. 10. 16. 40. 11. 10. 8. 8. 9. 6.
      9. 6. 7. 11. 45. 49. 51. 49. 17. 7. 6. 6. 6. 6. 7. 8. 10. 16. 41.
      14. 11. 8. 9. 10. 6. 6. 5. 7. 11. 45. 49. 51. 47. 15. 7. 7. 6. 7.
      7. 7. 8. 10. 16. 34. 11. 8. 6. 7. 9. 7. 7. 7. 8. 12. 46. 49. 48.
      44. 14. 8. 7. 7. 6. 6. 7. 8. 10. 15. 27. 11. 10. 9. 8. 6. 5. 5. 6.
      8. 11. 44. 48. 47. 43. 15. 7. 7. 6. 6. 6. 6. 7. 9. 12. 22. 12. 6.
      7. 7. 7. 8. 6. 7. 5. 12. 45. 46. 48. 45. 16. 6. 6. 6. 6. 6. 7. 8.
      9. 12. 13. 8. 8. 9. 6. 5. 6. 7. 5. 4. 13. 44. 45. 49. 46. 18. 7.
      6. 6. 6. 6. 7. 8. 8. 9. 8. 7. 8. 10. 7. 5. 6. 7. 7. 5. 14. 43. 45.
      49. 43. 13. 7. 6. 6. 6. 6. 6. 7. 8. 8. 12. 8. 7. 8. 8. 7. 7. 6. 6.
      7. 13. 45. 43. 44. 44. 16. 7. 6. 6. 6. 6. 6. 7. 7. 8. 14. 11. 7.
      7. 8. 8. 7. 7. 4. 9. 11. 44. 38. 33. 41. 16. 7. 6. 6. 6. 6. 6. 7.
      7. 7. 10. 11. 9. 8. 8. 7. 6. 7. 5. 9. 11. 45. 41. 36. 41. 13. 6.
      6. 6. 6. 6. 7. 7. 7. 7. 8. 10. 9. 7. 8. 7. 5. 7. 6. 6. 12. 38. 36.
      40. 41. 15. 6. 6. 6. 6. 6. 7. 7. 8. 7. 9. 10. 7. 6. 9. 8. 5. 6. 7.
      5. 10. 21. 10. 21. 25. 9. 6. 6. 6. 6. 6. 7. 8. 8. 6. 10. 9. 8. 8.
      7. 6. 6. 7. 8. 6. 6. 6. 6. 7. 7. 4. 6. 6. 6. 6. 6. 6. 6. 6. 6.</_>
    <_>
      10. 11. 9. 8. 9. 10. 8. 8. 10. 9. 8. 7. 12. 9. 10. 9. 8. 8. 8. 7.
      7. 8. 8. 6. 7. 8. 9. 6. 4. 7. 8. 8. 8. 6. 9. 9. 5. 7. 5. 9. 8. 8.
      8. 7. 6. 6. 6. 7. 6. 6. 5. 9. 9. 7. 7. 7. 7. 9. 7. 9. 6. 7. 22.
      32. 35. 24. 6. 6. 5. 6. 6. 7. 9. 11. 7. 6. 9. 11. 11. 10. 8. 5. 5.
      7. 6. 12. 32. 52. 53. 49. 36. 7. 5. 5. 7. 7. 8. 10. 13. 8. 9. 8.
      7. 8. 9. 8. 7. 11. 11. 35. 50. 49. 49. 51. 53. 34. 8. 7. 6. 7. 6.
      5. 6. 8. 7. 8. 8. 7. 7. 6. 7. 20. 36. 52. 52. 49. 53. 56. 52. 51.
      33. 7. 6. 6. 6. 6. 5. 5. 6. 7. 9. 9. 10. 9. 6. 8. 29. 55. 51. 53.
      50. 51. 53. 51. 53. 34. 6. 6. 6. 5. 6. 7. 7. 7. 8. 14. 9. 7. 9. 7.
      8. 26. 50. 51. 49. 41. 43. 49. 51. 54. 32. 7. 8. 7. 5. 5. 7. 7. 5.
      9. 27. 12. 9. 7. 8. 10. 28. 48. 39. 22. 6. 33. 51. 53. 50. 31. 7.
      7. 6. 5. 5. 7. 8. 8. 11. 30. 13. 9. 8. 8. 5. 8. 12. 7. 6. 5. 35.
      50. 51. 51. 33. 7. 7. 6. 5. 6. 7. 8. 8. 12. 31. 11. 7. 8. 10. 10.
      10. 6. 4. 8. 9. 37. 50. 52. 50. 30. 8. 7. 6. 6. 6. 7. 9. 9. 14.
      40. 16. 10. 8. 6. 6. 8. 4. 9. 9. 7. 33. 48. 53. 51. 29. 8. 7. 6.
      6. 7. 7. 9. 10. 16. 34. 11. 8. 9. 8. 6. 10. 8. 6. 7. 6. 35. 49.
      51. 50. 30. 8. 6. 6. 6. 7. 7. 8. 10. 16. 36. 15. 10. 10. 10. 7. 7.
      6. 8. 8. 8. 38. 51. 50. 48. 28. 8. 6. 5. 6. 7. 7. 8. 10. 15. 30.
      13. 8. 7. 9. 6. 7. 7. 8. 7. 5. 35. 49. 50. 47. 26. 8. 6. 5. 6. 7.
      6. 7. 10. 14. 23. 12. 10. 7. 8. 7. 7. 7. 7. 9. 9. 36. 49. 50. 47.
      26. 8. 6. 5. 6. 7. 6. 7. 10. 14. 24. 14. 8. 9. 8. 6. 6. 6. 6. 9.
      7. 37. 44. 49. 49. 26. 8. 7. 6. 6. 6. 7. 7. 8. 12. 16. 10. 8. 8.
      8. 7. 7. 6. 8. 5. 9. 38. 50. 47. 49. 29. 8. 7. 6. 6. 6. 6. 7. 8.
      10. 12. 10. 9. 9. 6. 6. 5. 3. 7. 7. 7. 38. 45. 50. 46. 25. 7. 7.
      6. 6. 6. 6. 7. 7. 8. 8. 7. 7. 8. 6. 7. 7. 6. 4. 7. 5. 38. 43. 45.
      47. 26. 7. 7. 6. 6. 6. 6. 7. 7. 7. 12. 7. 6. 8. 7. 6. 7. 8. 6. 4.
      8. 37. 48. 28. 43. 25. 7. 7. 6. 6. 6. 6. 7. 7. 6. 16. 11. 8. 8. 6.
      4. 5. 6. 7. 7. 7. 37. 47. 33. 45. 24. 7. 6. 6. 6. 6. 6. 7. 7. 7.
      11. 8. 8. 8. 6. 6. 8. 7. 4. 9. 5. 33. 34. 42. 44. 25. 6. 6. 6. 6.
      6. 6. 7. 7. 8. 9. 9. 10. 8. 6. 6. 7. 4. 5. 6. 7. 22. 15. 20. 22.
      13. 6. 6. 6. 6. 6. 7. 7. 8. 6. 8. 7. 6. 7. 7. 6. 6. 7. 8. 6. 6. 6.
      5. 6. 7. 6. 6. 6. 7. 6. 5. 6. 7. 6. 6.</_>
    <_>
      8. 9. 7. 6. 9. 9. 8. 7. 7. 9. 9. 4. 9. 9. 7. 6. 8. 7. 7. 7. 7. 7.
      6. 6. 7. 6. 8. 7. 5. 6. 7. 8. 10. 7. 6. 8. 5. 8. 7. 10. 11. 7. 6.
      6. 6. 7. 7. 7. 8. 6. 9. 11. 10. 8. 8. 6. 5. 5. 8. 7. 8. 12. 29.
      44. 45. 30. 7. 6. 5. 6. 6. 7. 9. 11. 7. 7. 8. 9. 10. 12. 11. 8. 8.
      7. 8. 23. 39. 51. 54. 51. 36. 7. 7. 6. 6. 6. 7. 9. 11. 8. 8. 8. 8.
      7. 6. 4. 6. 13. 26. 38. 52. 52. 51. 53. 53. 32. 7. 7. 6. 6. 6. 6.
      7. 9. 7. 7. 8. 9. 9. 8. 11. 26. 46. 52. 49. 50. 53. 52. 49. 51.
      36. 7. 6. 6. 6. 5. 5. 5. 6. 7. 10. 8. 7. 8. 5. 7. 28. 53. 51. 53.
      52. 51. 52. 53. 52. 32. 7. 6. 6. 6. 6. 6. 6. 7. 9. 15. 10. 8. 10.
      9. 9. 26. 51. 53. 46. 37. 40. 50. 52. 51. 33. 8. 7. 6. 6. 7. 7. 7.
      8. 9. 28. 11. 8. 8. 8. 10. 26. 42. 33. 18. 8. 37. 52. 52. 52. 33.
      8. 7. 6. 6. 6. 6. 7. 8. 11. 25. 11. 10. 8. 7. 3. 6. 11. 9. 5. 5.
      36. 50. 52. 51. 32. 8. 7. 6. 6. 6. 6. 7. 8. 13. 25. 11. 9. 8. 10.
      9. 9. 8. 6. 8. 9. 37. 49. 52. 51. 30. 8. 7. 6. 6. 6. 7. 8. 9. 15.
      37. 18. 11. 7. 8. 7. 7. 6. 8. 8. 8. 36. 49. 53. 52. 30. 8. 7. 6.
      6. 7. 7. 8. 10. 15. 31. 13. 7. 6. 9. 7. 8. 8. 7. 6. 7. 37. 51. 53.
      50. 28. 8. 7. 6. 6. 6. 7. 8. 10. 16. 31. 15. 10. 8. 9. 6. 6. 7. 8.
      7. 9. 40. 51. 50. 48. 29. 8. 7. 6. 6. 6. 7. 8. 10. 16. 25. 12. 9.
      6. 7. 6. 8. 7. 5. 5. 7. 37. 48. 49. 49. 30. 8. 6. 6. 6. 6. 7. 8.
      10. 15. 21. 11. 10. 6. 7. 8. 8. 5. 6. 7. 8. 38. 50. 51. 48. 24. 8.
      7. 6. 6. 6. 7. 8. 10. 13. 26. 13. 7. 9. 9. 6. 6. 8. 7. 6. 5. 36.
      50. 48. 50. 29. 8. 7. 6. 6. 6. 6. 8. 9. 11. 19. 11. 7. 8. 8. 6. 6.
      6. 5. 6. 8. 38. 47. 48. 46. 27. 8. 7. 6. 6. 6. 6. 7. 8. 9. 11. 8.
      7. 8. 7. 6. 6. 5. 6. 6. 7. 38. 47. 51. 48. 27. 7. 6. 6. 6. 6. 6.
      7. 8. 9. 10. 7. 7. 8. 7. 6. 6. 6. 8. 6. 4. 37. 46. 45. 48. 25. 6.
      6. 6. 6. 6. 6. 6. 7. 8. 12. 7. 7. 8. 7. 6. 6. 6. 5. 7. 6. 39. 44.
      33. 45. 24. 6. 6. 6. 6. 6. 6. 6. 7. 6. 13. 8. 6. 8. 7. 5. 5. 6. 5.
      6. 6. 41. 43. 34. 46. 25. 7. 6. 6. 6. 6. 6. 6. 7. 6. 12. 9. 8. 8.
      6. 6. 7. 5. 6. 5. 5. 39. 37. 41. 44. 25. 7. 6. 6. 6. 6. 6. 7. 8.
      7. 9. 10. 10. 8. 6. 8. 8. 5. 6. 6. 6. 35. 25. 40. 37. 24. 7. 6. 6.
      6. 6. 6. 7. 8. 7. 8. 8. 8. 6. 7. 8. 5. 7. 6. 6. 6. 7. 9. 5. 8. 7.
      5. 6. 6. 6. 6. 6. 7. 6. 6.</_>
    <_>
      8. 9. 6. 8. 6. 9. 8. 8. 7. 9. 11. 4. 8. 9. 7. 8. 7. 7. 7. 7. 7. 6.
      6. 6. 5. 8. 8. 5. 7. 6. 9. 7. 6. 7. 6. 5. 6. 11. 8. 9. 7. 7. 6. 6.
      6. 6. 6. 7. 8. 7. 6. 8. 9. 10. 7. 8. 6. 7. 7. 8. 5. 14. 32. 41.
      44. 24. 7. 6. 5. 6. 6. 7. 9. 10. 7. 8. 10. 11. 11. 9. 8. 7. 9. 6.
      10. 21. 39. 51. 50. 50. 31. 7. 6. 6. 6. 6. 7. 9. 10. 9. 8. 6. 6.
      6. 6. 6. 10. 16. 27. 39. 51. 49. 49. 55. 52. 27. 7. 6. 5. 6. 6. 6.
      6. 7. 5. 10. 8. 10. 9. 9. 10. 27. 44. 51. 48. 51. 51. 51. 51. 49.
      32. 7. 6. 6. 6. 6. 5. 5. 6. 7. 10. 6. 9. 7. 6. 7. 31. 56. 47. 50.
      50. 51. 53. 52. 51. 29. 7. 7. 6. 6. 6. 6. 6. 7. 7. 21. 10. 8. 8.
      10. 9. 30. 51. 51. 42. 27. 39. 53. 50. 51. 28. 7. 6. 5. 6. 6. 6.
      7. 8. 9. 50. 16. 9. 7. 7. 8. 26. 37. 24. 14. 7. 41. 49. 51. 52.
      27. 7. 6. 6. 6. 6. 6. 7. 8. 10. 50. 12. 8. 10. 10. 5. 8. 8. 11. 6.
      5. 41. 50. 51. 51. 26. 7. 6. 6. 6. 6. 6. 7. 8. 12. 59. 13. 7. 7.
      9. 8. 9. 7. 5. 4. 6. 44. 51. 51. 50. 25. 7. 6. 6. 6. 6. 6. 7. 9.
      13. 61. 15. 11. 8. 7. 7. 6. 6. 7. 6. 8. 44. 50. 50. 49. 25. 7. 6.
      6. 6. 6. 6. 7. 9. 14. 49. 9. 10. 8. 7. 8. 7. 8. 6. 5. 7. 43. 49.
      50. 50. 25. 7. 6. 6. 6. 6. 6. 7. 9. 14. 48. 14. 11. 7. 7. 6. 5. 6.
      6. 4. 6. 42. 49. 50. 49. 23. 7. 6. 6. 6. 6. 6. 7. 9. 14. 33. 9. 8.
      7. 10. 8. 7. 6. 6. 5. 8. 43. 49. 50. 47. 20. 7. 6. 6. 6. 5. 6. 7.
      9. 15. 31. 13. 10. 6. 8. 4. 6. 6. 5. 5. 8. 43. 49. 49. 48. 21. 7.
      6. 5. 5. 5. 6. 7. 9. 12. 26. 13. 6. 8. 8. 5. 5. 7. 7. 5. 5. 41.
      48. 49. 46. 21. 7. 6. 6. 6. 6. 6. 7. 9. 11. 16. 9. 6. 8. 8. 6. 5.
      5. 4. 6. 9. 43. 47. 50. 46. 25. 7. 6. 6. 6. 6. 6. 7. 8. 10. 8. 6.
      6. 8. 7. 7. 6. 4. 6. 6. 9. 42. 45. 49. 44. 20. 7. 6. 5. 6. 6. 6.
      6. 7. 9. 9. 7. 6. 7. 6. 6. 7. 6. 6. 5. 7. 41. 46. 44. 46. 20. 7.
      6. 5. 6. 6. 6. 6. 6. 8. 13. 8. 6. 7. 5. 5. 6. 7. 4. 6. 9. 43. 44.
      33. 44. 18. 7. 6. 5. 6. 6. 6. 6. 6. 6. 13. 8. 7. 7. 6. 6. 6. 6. 6.
      7. 10. 44. 44. 33. 44. 17. 6. 6. 5. 6. 6. 6. 6. 7. 6. 10. 8. 8. 8.
      6. 7. 7. 5. 7. 5. 9. 39. 36. 40. 45. 21. 6. 6. 6. 6. 6. 6. 7. 8.
      6. 8. 9. 10. 7. 5. 8. 8. 5. 6. 5. 8. 30. 16. 30. 30. 13. 6. 6. 6.
      6. 6. 6. 7. 9. 6. 8. 8. 8. 7. 6. 6. 6. 7. 7. 6. 7. 6. 6. 7. 6. 7.
      6. 6. 6. 6. 6. 6. 6. 6. 6.</_>
    <_>
      9. 8. 9. 10. 9. 10. 10. 7. 7. 11. 10. 10. 10. 9. 10. 6. 8. 7. 6.
      7. 7. 7. 6. 6. 7. 8. 6. 6. 5. 5. 6. 7. 5. 7. 6. 4. 6. 6. 5. 8. 9.
      7. 6. 6. 6. 6. 6. 7. 7. 6. 7. 9. 10. 9. 7. 7. 7. 7. 7. 9. 5. 7.
      18. 31. 36. 29. 7. 6. 6. 6. 6. 7. 8. 10. 6. 6. 8. 9. 10. 9. 7. 4.
      4. 6. 6. 12. 30. 47. 51. 50. 44. 7. 6. 6. 6. 6. 7. 8. 10. 7. 8. 7.
      5. 6. 9. 7. 6. 10. 11. 30. 43. 48. 48. 51. 51. 44. 6. 6. 6. 6. 5.
      5. 7. 8. 6. 9. 9. 7. 7. 8. 8. 19. 36. 50. 48. 46. 51. 55. 53. 48.
      41. 7. 6. 6. 6. 6. 5. 6. 7. 7. 8. 9. 8. 8. 6. 7. 25. 52. 48. 54.
      52. 49. 49. 51. 50. 40. 8. 7. 6. 6. 6. 6. 6. 6. 8. 14. 11. 7. 8.
      10. 8. 23. 48. 51. 46. 38. 39. 48. 53. 50. 40. 8. 6. 5. 5. 6. 6.
      6. 6. 9. 37. 9. 9. 7. 9. 9. 23. 43. 36. 23. 8. 28. 49. 51. 51. 39.
      8. 6. 5. 6. 6. 5. 6. 7. 10. 37. 10. 9. 6. 8. 7. 9. 12. 8. 7. 6.
      30. 48. 48. 49. 39. 8. 6. 5. 6. 6. 5. 6. 8. 12. 44. 13. 12. 8. 9.
      8. 8. 5. 5. 6. 7. 31. 49. 49. 49. 37. 8. 6. 5. 6. 6. 6. 7. 9. 13.
      54. 14. 8. 8. 9. 6. 9. 10. 8. 7. 4. 27. 48. 52. 51. 36. 7. 6. 5.
      6. 6. 6. 7. 9. 14. 59. 15. 7. 9. 10. 6. 5. 4. 3. 6. 6. 29. 49. 50.
      50. 35. 7. 6. 5. 6. 6. 6. 7. 9. 15. 52. 16. 11. 8. 9. 6. 6. 5. 4.
      8. 9. 32. 50. 49. 47. 33. 7. 6. 5. 6. 6. 6. 7. 9. 14. 39. 13. 11.
      5. 6. 5. 7. 8. 4. 5. 4. 29. 49. 49. 47. 33. 7. 6. 5. 6. 6. 6. 7.
      9. 13. 38. 12. 10. 6. 10. 7. 5. 5. 6. 7. 6. 30. 49. 48. 45. 32. 8.
      6. 6. 6. 6. 6. 7. 8. 12. 32. 15. 5. 7. 8. 5. 5. 8. 8. 5. 4. 31.
      47. 46. 49. 32. 7. 7. 6. 6. 6. 6. 7. 7. 10. 17. 9. 7. 10. 10. 6.
      4. 3. 5. 4. 8. 30. 46. 47. 49. 31. 7. 6. 6. 6. 6. 6. 6. 6. 8. 11.
      8. 7. 7. 6. 6. 7. 6. 7. 6. 6. 33. 43. 48. 45. 29. 6. 6. 6. 6. 6.
      6. 6. 6. 7. 8. 7. 7. 7. 6. 7. 7. 5. 7. 5. 4. 34. 45. 41. 45. 32.
      6. 6. 6. 6. 6. 6. 6. 6. 7. 12. 8. 6. 6. 6. 6. 6. 4. 5. 6. 8. 31.
      45. 29. 44. 28. 7. 7. 6. 6. 6. 6. 6. 7. 6. 17. 10. 6. 5. 5. 5. 6.
      6. 4. 10. 5. 33. 41. 37. 45. 27. 7. 7. 6. 6. 6. 6. 7. 7. 6. 10. 8.
      9. 10. 9. 7. 6. 3. 5. 9. 3. 29. 31. 39. 40. 28. 6. 6. 6. 6. 6. 6.
      7. 7. 6. 8. 8. 9. 7. 5. 5. 7. 7. 8. 2. 9. 12. 16. 8. 16. 12. 6. 6.
      6. 6. 6. 7. 7. 7. 6. 8. 8. 6. 6. 7. 6. 5. 6. 8. 6. 5. 6. 7. 6. 6.
      5. 6. 6. 6. 6. 6. 5. 5. 6. 6.</_>
    <_>
      10. 8. 5. 7. 7. 7. 9. 5. 5. 10. 5. 7. 5. 7. 7. 7. 6. 6. 6. 5. 5.
      5. 6. 6. 6. 6. 7. 6. 7. 6. 6. 7. 7. 6. 6. 5. 11. 12. 17. 18. 8. 6.
      6. 6. 6. 7. 8. 9. 10. 7. 7. 8. 9. 8. 7. 5. 3. 5. 7. 4. 12. 31. 46.
      53. 45. 12. 6. 5. 5. 6. 7. 8. 10. 11. 7. 9. 8. 10. 7. 10. 8. 6. 9.
      5. 20. 39. 50. 52. 50. 45. 15. 6. 6. 5. 5. 6. 6. 7. 8. 7. 9. 7. 9.
      4. 5. 4. 11. 18. 40. 49. 50. 49. 53. 52. 44. 11. 7. 7. 6. 6. 6. 6.
      6. 6. 6. 5. 5. 9. 7. 10. 15. 39. 52. 49. 56. 51. 50. 51. 49. 43.
      14. 6. 6. 6. 6. 6. 6. 6. 6. 7. 12. 10. 9. 7. 6. 9. 42. 51. 48. 49.
      44. 54. 53. 50. 44. 13. 5. 5. 5. 5. 5. 6. 6. 6. 8. 16. 10. 7. 8.
      8. 11. 45. 49. 49. 35. 27. 48. 49. 51. 45. 11. 7. 6. 6. 5. 5. 6.
      6. 6. 10. 67. 10. 7. 6. 10. 14. 33. 32. 15. 8. 23. 47. 50. 52. 46.
      12. 7. 6. 6. 6. 6. 6. 6. 8. 12. 69. 12. 9. 9. 6. 5. 10. 6. 8. 4.
      22. 48. 50. 51. 44. 10. 6. 6. 6. 6. 6. 6. 7. 9. 12. 71. 12. 9. 10.
      6. 7. 6. 5. 5. 3. 23. 48. 50. 51. 43. 11. 6. 6. 6. 6. 6. 7. 8. 9.
      18. 74. 12. 8. 7. 6. 8. 6. 8. 7. 5. 23. 47. 50. 50. 43. 12. 6. 5.
      6. 6. 6. 7. 8. 9. 17. 74. 12. 10. 5. 8. 5. 4. 4. 8. 6. 22. 46. 50.
      50. 42. 11. 6. 6. 6. 6. 6. 6. 7. 9. 18. 71. 12. 10. 5. 10. 6. 7.
      7. 6. 6. 23. 46. 51. 50. 40. 10. 6. 6. 6. 6. 6. 6. 7. 9. 14. 66.
      13. 8. 5. 8. 4. 7. 6. 5. 7. 23. 47. 51. 49. 39. 10. 6. 6. 6. 6. 6.
      6. 7. 9. 15. 59. 12. 7. 9. 9. 6. 7. 5. 5. 7. 24. 46. 49. 47. 38.
      10. 6. 6. 5. 6. 6. 6. 8. 10. 12. 52. 12. 8. 10. 4. 8. 5. 6. 5. 7.
      22. 43. 48. 48. 38. 7. 6. 6. 6. 6. 6. 6. 7. 7. 13. 23. 7. 10. 9.
      6. 8. 5. 4. 7. 8. 23. 44. 49. 49. 40. 10. 6. 6. 6. 6. 6. 6. 7. 7.
      10. 9. 8. 8. 5. 4. 6. 5. 8. 5. 6. 22. 45. 48. 47. 38. 8. 6. 6. 6.
      6. 6. 6. 6. 6. 10. 9. 8. 6. 8. 9. 6. 4. 6. 6. 6. 24. 45. 46. 44.
      38. 10. 6. 6. 6. 6. 6. 6. 6. 6. 8. 13. 7. 3. 8. 8. 5. 7. 5. 7. 7.
      23. 42. 39. 39. 37. 11. 6. 6. 6. 6. 6. 6. 6. 6. 6. 14. 9. 6. 6. 2.
      5. 10. 6. 5. 6. 24. 42. 38. 39. 37. 8. 6. 6. 6. 6. 6. 6. 6. 6. 7.
      9. 9. 11. 9. 6. 7. 6. 2. 6. 7. 25. 43. 39. 41. 39. 7. 6. 6. 6. 6.
      6. 6. 6. 7. 6. 9. 8. 8. 6. 6. 7. 4. 7. 6. 5. 20. 35. 32. 38. 38.
      7. 5. 5. 6. 6. 6. 7. 7. 7. 5. 8. 7. 7. 6. 6. 6. 6. 7. 6. 6. 5. 6.
      7. 9. 10. 5. 6. 6. 6. 5. 6. 7. 7. 6. 6.</_>
    <_>
      8. 10. 7. 7. 10. 9. 8. 9. 7. 8. 10. 10. 8. 7. 7. 9. 8. 9. 9. 7. 7.
      8. 10. 10. 8. 7. 8. 6. 5. 6. 7. 6. 5. 9. 8. 7. 5. 7. 9. 9. 6. 6.
      7. 7. 7. 6. 6. 6. 7. 6. 6. 8. 10. 8. 6. 7. 7. 7. 6. 6. 5. 5. 12.
      21. 25. 23. 7. 6. 6. 7. 7. 6. 6. 8. 6. 7. 9. 11. 10. 8. 9. 7. 6.
      8. 7. 9. 19. 37. 52. 54. 49. 9. 6. 5. 6. 7. 6. 8. 11. 7. 10. 7. 8.
      7. 8. 9. 7. 10. 7. 20. 37. 49. 52. 51. 50. 51. 9. 6. 4. 6. 6. 6.
      8. 11. 7. 8. 7. 9. 7. 6. 7. 13. 33. 49. 49. 49. 51. 52. 51. 51.
      52. 7. 5. 5. 6. 6. 6. 6. 7. 6. 9. 9. 11. 9. 8. 7. 18. 52. 50. 51.
      51. 51. 51. 52. 51. 49. 7. 6. 6. 6. 6. 6. 6. 5. 7. 15. 10. 8. 6.
      10. 7. 16. 51. 53. 50. 45. 42. 45. 51. 52. 49. 7. 7. 6. 5. 5. 7.
      7. 7. 9. 32. 14. 7. 8. 6. 8. 22. 43. 43. 27. 13. 25. 48. 51. 53.
      51. 7. 6. 6. 6. 6. 6. 7. 8. 10. 28. 13. 7. 8. 8. 6. 9. 16. 9. 6.
      5. 24. 48. 51. 53. 50. 6. 6. 6. 6. 6. 6. 7. 8. 12. 28. 15. 9. 9.
      10. 9. 6. 6. 3. 5. 8. 26. 48. 50. 51. 47. 6. 6. 6. 6. 6. 6. 7. 9.
      11. 26. 14. 8. 7. 7. 8. 6. 7. 8. 7. 7. 24. 48. 50. 51. 47. 7. 6.
      6. 6. 6. 6. 8. 9. 13. 26. 14. 9. 8. 7. 6. 4. 6. 6. 4. 5. 25. 50.
      51. 50. 46. 6. 6. 5. 6. 6. 6. 7. 9. 14. 31. 16. 9. 9. 9. 8. 5. 7.
      6. 5. 8. 28. 50. 49. 48. 44. 7. 6. 6. 6. 6. 6. 7. 9. 14. 26. 13.
      7. 6. 7. 7. 5. 7. 5. 5. 7. 25. 47. 49. 48. 43. 7. 7. 6. 6. 6. 6.
      7. 9. 14. 19. 11. 10. 9. 7. 6. 5. 6. 6. 6. 7. 23. 48. 51. 48. 38.
      7. 6. 6. 6. 5. 6. 7. 8. 12. 21. 11. 6. 8. 8. 6. 5. 5. 6. 6. 4. 25.
      44. 48. 48. 41. 6. 6. 6. 6. 6. 7. 7. 8. 11. 15. 10. 7. 8. 7. 6. 6.
      5. 5. 6. 6. 25. 45. 48. 50. 43. 7. 6. 6. 6. 6. 6. 6. 7. 9. 9. 8.
      8. 7. 5. 5. 6. 5. 7. 6. 6. 23. 46. 47. 49. 38. 7. 7. 6. 6. 5. 5.
      6. 6. 8. 9. 7. 7. 7. 5. 6. 6. 6. 7. 5. 7. 24. 46. 43. 46. 39. 7.
      7. 6. 6. 5. 5. 6. 6. 6. 13. 7. 6. 7. 6. 6. 6. 6. 5. 4. 9. 25. 43.
      34. 39. 37. 6. 6. 6. 5. 5. 6. 6. 7. 6. 14. 8. 6. 7. 7. 6. 6. 6. 7.
      4. 6. 25. 44. 38. 41. 39. 6. 6. 6. 6. 6. 6. 7. 7. 6. 11. 9. 8. 8.
      6. 6. 7. 6. 7. 6. 4. 22. 40. 38. 41. 37. 6. 6. 6. 6. 6. 7. 7. 8.
      6. 7. 9. 11. 9. 5. 6. 7. 5. 4. 9. 5. 15. 19. 15. 18. 16. 7. 7. 6.
      6. 6. 7. 7. 8. 6. 7. 6. 8. 6. 6. 5. 7. 5. 8. 7. 6. 6. 6. 6. 6. 6.
      6. 5. 5. 6. 6. 6. 6. 6. 6.</_>
    <_>
      9. 6. 10. 12. 11. 6. 9. 8. 9. 8. 10. 6. 10. 10. 8. 8. 8. 8. 7. 7.
      5. 5. 5. 5. 6. 10. 7. 7. 7. 6. 6. 8. 7. 9. 4. 8. 10. 8. 6. 11. 7.
      6. 6. 6. 6. 6. 6. 7. 8. 7. 5. 7. 8. 5. 4. 7. 7. 7. 6. 8. 6. 12.
      27. 34. 32. 7. 6. 6. 5. 5. 6. 7. 9. 11. 6. 8. 11. 11. 10. 8. 10.
      7. 6. 6. 9. 23. 47. 51. 50. 50. 8. 6. 6. 5. 5. 6. 7. 9. 10. 7. 8.
      7. 6. 7. 6. 5. 7. 8. 18. 40. 46. 51. 52. 53. 51. 5. 6. 6. 6. 6. 6.
      6. 7. 8. 6. 8. 8. 8. 10. 8. 7. 31. 39. 53. 50. 48. 55. 47. 47. 52.
      6. 5. 6. 6. 6. 6. 6. 6. 6. 6. 6. 7. 8. 9. 7. 6. 48. 58. 49. 54.
      50. 53. 52. 51. 50. 7. 5. 6. 6. 6. 6. 6. 6. 6. 9. 14. 10. 6. 7. 8.
      6. 49. 50. 52. 43. 38. 49. 52. 50. 48. 8. 6. 6. 6. 6. 6. 6. 6. 6.
      8. 22. 9. 7. 8. 7. 7. 44. 44. 23. 10. 26. 50. 51. 50. 48. 8. 6. 6.
      6. 6. 6. 5. 6. 8. 11. 28. 10. 9. 10. 8. 5. 13. 4. 11. 5. 25. 49.
      51. 51. 49. 8. 6. 6. 6. 6. 6. 5. 7. 8. 13. 33. 11. 9. 7. 6. 9. 6.
      5. 5. 5. 27. 49. 50. 51. 49. 6. 6. 6. 6. 6. 6. 6. 7. 9. 12. 30.
      11. 12. 8. 6. 8. 5. 10. 6. 7. 29. 50. 49. 50. 47. 6. 6. 6. 6. 6.
      6. 6. 7. 9. 16. 32. 14. 10. 7. 9. 6. 3. 4. 6. 6. 26. 49. 50. 49.
      45. 7. 6. 6. 6. 6. 6. 6. 8. 10. 14. 33. 14. 8. 6. 9. 6. 8. 7. 6.
      5. 25. 50. 52. 48. 43. 7. 6. 6. 6. 6. 6. 6. 8. 10. 15. 30. 12. 8.
      9. 7. 6. 5. 5. 7. 6. 26. 49. 51. 47. 42. 6. 6. 6. 6. 6. 6. 6. 8.
      10. 13. 34. 12. 6. 9. 3. 8. 4. 7. 6. 7. 25. 46. 48. 46. 42. 7. 6.
      6. 6. 6. 6. 6. 8. 10. 13. 19. 12. 6. 6. 7. 7. 6. 6. 5. 7. 23. 44.
      47. 48. 41. 7. 6. 6. 5. 6. 6. 6. 7. 10. 12. 11. 9. 8. 8. 7. 5. 5.
      7. 7. 7. 25. 48. 47. 47. 40. 7. 6. 6. 6. 6. 6. 6. 7. 9. 11. 7. 7.
      8. 9. 7. 5. 5. 7. 7. 4. 24. 48. 48. 47. 39. 6. 6. 6. 6. 6. 6. 6.
      7. 8. 9. 11. 8. 6. 6. 7. 7. 6. 6. 7. 5. 26. 46. 42. 43. 38. 7. 6.
      6. 6. 6. 6. 6. 6. 6. 7. 13. 10. 6. 6. 6. 7. 6. 5. 4. 7. 28. 42.
      34. 37. 34. 7. 6. 6. 6. 6. 6. 6. 6. 5. 6. 10. 9. 8. 7. 6. 5. 6. 6.
      4. 7. 27. 41. 40. 45. 35. 5. 6. 6. 6. 5. 6. 6. 6. 6. 6. 7. 8. 9.
      7. 5. 5. 6. 6. 8. 7. 21. 33. 36. 42. 32. 6. 6. 6. 6. 5. 6. 7. 7.
      6. 6. 9. 8. 7. 6. 5. 6. 6. 6. 8. 3. 9. 12. 11. 18. 17. 5. 6. 7. 6.
      5. 6. 8. 8. 7. 6. 11. 7. 6. 8. 8. 7. 7. 8. 7. 6. 6. 6. 6. 6. 6. 6.
      6. 6. 6. 5. 5. 5. 6. 5. 6.</_>
    <_>
      11. 8. 8. 9. 9. 9. 10. 8. 7. 10. 10. 8. 8. 9. 9. 10. 8. 8. 8. 8.
      7. 7. 7. 8. 8. 8. 6. 5. 5. 5. 6. 7. 6. 8. 6. 5. 7. 10. 8. 5. 6. 7.
      7. 7. 6. 5. 5. 6. 7. 6. 7. 8. 9. 9. 7. 6. 7. 8. 6. 9. 7. 5. 14.
      25. 28. 27. 7. 7. 6. 6. 5. 5. 7. 9. 6. 6. 8. 10. 11. 9. 5. 3. 4.
      6. 4. 9. 26. 45. 52. 51. 50. 6. 7. 7. 6. 6. 6. 8. 10. 8. 8. 7. 6.
      7. 8. 5. 5. 10. 10. 29. 43. 47. 50. 54. 53. 49. 6. 6. 6. 6. 6. 6.
      7. 8. 6. 8. 8. 7. 7. 7. 6. 18. 37. 48. 49. 49. 51. 53. 50. 46. 45.
      6. 7. 7. 6. 6. 5. 6. 6. 5. 8. 9. 8. 7. 5. 5. 24. 53. 50. 53. 50.
      46. 49. 55. 53. 47. 7. 7. 6. 6. 6. 6. 6. 6. 7. 16. 12. 7. 8. 9. 7.
      22. 49. 51. 47. 40. 39. 46. 52. 50. 46. 6. 5. 5. 5. 6. 7. 6. 6. 9.
      34. 11. 8. 8. 8. 8. 23. 45. 36. 21. 8. 24. 49. 52. 52. 43. 7. 6.
      5. 5. 6. 6. 6. 7. 10. 40. 13. 7. 9. 10. 6. 5. 8. 8. 5. 5. 26. 48.
      49. 52. 46. 7. 6. 6. 6. 6. 6. 6. 7. 12. 46. 16. 8. 6. 7. 8. 8. 6.
      6. 6. 7. 27. 49. 49. 50. 41. 7. 7. 6. 6. 6. 5. 6. 7. 14. 43. 15.
      10. 9. 6. 6. 8. 7. 8. 6. 5. 24. 48. 51. 51. 39. 7. 6. 6. 6. 5. 5.
      6. 8. 12. 42. 13. 9. 10. 8. 6. 6. 3. 3. 5. 6. 25. 48. 51. 51. 40.
      6. 6. 6. 6. 6. 6. 7. 8. 14. 39. 12. 8. 7. 6. 6. 8. 9. 7. 8. 9. 27.
      49. 50. 49. 39. 6. 6. 5. 6. 6. 6. 7. 9. 15. 28. 11. 11. 8. 6. 5.
      4. 5. 8. 5. 4. 24. 48. 49. 48. 37. 7. 6. 5. 5. 6. 6. 7. 8. 12. 24.
      11. 11. 6. 7. 7. 6. 6. 6. 4. 5. 26. 50. 49. 47. 34. 8. 6. 5. 5. 6.
      6. 7. 8. 12. 22. 12. 6. 8. 7. 6. 6. 6. 6. 6. 7. 23. 45. 48. 47.
      36. 7. 6. 5. 5. 6. 6. 7. 7. 10. 16. 10. 7. 7. 6. 6. 7. 6. 6. 7. 4.
      28. 47. 52. 48. 36. 7. 6. 6. 6. 6. 6. 6. 6. 8. 9. 7. 7. 7. 5. 6.
      7. 6. 6. 7. 4. 28. 47. 45. 45. 31. 7. 6. 6. 6. 6. 6. 6. 5. 6. 9.
      7. 7. 7. 6. 6. 7. 6. 6. 6. 8. 25. 47. 36. 46. 31. 7. 6. 6. 6. 6.
      6. 6. 6. 6. 13. 8. 7. 8. 6. 5. 6. 6. 7. 6. 8. 24. 44. 33. 44. 28.
      7. 6. 6. 5. 6. 7. 7. 7. 6. 14. 9. 7. 8. 6. 5. 5. 6. 7. 7. 6. 28.
      41. 40. 45. 31. 7. 6. 5. 5. 6. 7. 8. 8. 6. 11. 9. 8. 8. 6. 6. 6.
      6. 5. 6. 6. 24. 31. 35. 39. 30. 7. 6. 6. 6. 6. 7. 7. 7. 6. 7. 8.
      9. 7. 5. 6. 7. 5. 8. 5. 6. 10. 10. 6. 13. 6. 7. 6. 6. 6. 6. 6. 6.
      6. 6. 8. 8. 6. 7. 6. 4. 6. 5. 8. 6. 5. 6. 6. 6. 6. 7. 6. 7. 6. 5.
      7. 6. 5. 6. 6.</_>
    <_>
      8. 7. 6. 6. 8. 9. 8. 5. 6. 6. 9. 8. 6. 8. 7. 6. 7. 7. 7. 6. 6. 5.
      5. 6. 6. 6. 7. 7. 5. 4. 5. 7. 7. 9. 4. 4. 7. 10. 13. 13. 12. 7. 7.
      6. 6. 6. 7. 8. 9. 6. 7. 9. 11. 9. 7. 7. 8. 8. 7. 6. 7. 14. 31. 49.
      48. 35. 7. 7. 6. 6. 6. 7. 9. 11. 8. 6. 8. 9. 10. 8. 6. 5. 4. 4.
      11. 24. 41. 51. 53. 50. 43. 8. 7. 6. 5. 6. 6. 8. 9. 9. 7. 7. 8. 8.
      6. 6. 9. 14. 24. 41. 50. 51. 50. 53. 51. 37. 8. 7. 6. 5. 5. 5. 6.
      7. 7. 9. 8. 8. 8. 6. 9. 24. 41. 51. 51. 47. 51. 52. 50. 50. 42. 7.
      6. 6. 6. 6. 6. 6. 6. 7. 10. 6. 6. 8. 6. 10. 31. 54. 49. 54. 51.
      51. 52. 53. 52. 38. 7. 6. 5. 6. 6. 6. 6. 7. 8. 14. 8. 7. 9. 8. 9.
      27. 50. 51. 46. 36. 41. 49. 51. 50. 36. 7. 6. 5. 6. 6. 6. 6. 7. 8.
      25. 9. 9. 9. 6. 10. 30. 45. 36. 21. 9. 35. 50. 52. 52. 32. 8. 6.
      5. 6. 6. 5. 6. 7. 10. 35. 14. 10. 8. 7. 7. 12. 13. 11. 7. 6. 37.
      51. 51. 52. 35. 8. 6. 6. 6. 6. 5. 6. 7. 11. 32. 13. 9. 8. 7. 7. 9.
      5. 5. 5. 7. 38. 49. 48. 50. 34. 8. 6. 6. 6. 6. 6. 7. 8. 13. 31.
      13. 10. 8. 7. 6. 9. 8. 8. 6. 6. 37. 49. 50. 51. 34. 8. 6. 6. 6. 6.
      6. 7. 9. 14. 37. 14. 8. 9. 9. 5. 6. 4. 6. 4. 5. 37. 51. 51. 50.
      30. 7. 6. 5. 6. 6. 6. 7. 9. 14. 40. 14. 7. 8. 8. 5. 7. 6. 7. 6. 7.
      38. 50. 49. 48. 28. 7. 6. 5. 6. 6. 6. 7. 9. 15. 36. 15. 10. 8. 6.
      3. 7. 8. 6. 5. 7. 37. 49. 50. 49. 30. 8. 6. 5. 6. 6. 6. 7. 9. 14.
      25. 9. 9. 9. 8. 6. 7. 4. 6. 5. 7. 37. 50. 49. 46. 23. 8. 6. 5. 6.
      6. 6. 7. 9. 12. 17. 11. 9. 9. 7. 5. 6. 7. 6. 7. 3. 40. 45. 49. 47.
      27. 7. 7. 6. 6. 6. 7. 7. 7. 11. 17. 10. 6. 7. 7. 6. 6. 6. 5. 5. 7.
      38. 47. 50. 47. 25. 7. 7. 6. 6. 6. 7. 7. 7. 10. 13. 8. 6. 7. 6. 6.
      6. 6. 6. 5. 8. 38. 47. 50. 48. 24. 7. 6. 6. 6. 6. 6. 6. 6. 9. 8.
      6. 8. 9. 6. 5. 6. 7. 6. 6. 5. 40. 44. 46. 46. 24. 7. 6. 6. 5. 6.
      6. 6. 5. 7. 9. 7. 7. 8. 6. 6. 6. 6. 6. 6. 4. 41. 44. 37. 45. 21.
      7. 6. 6. 6. 6. 6. 6. 6. 6. 14. 8. 5. 5. 6. 7. 7. 5. 6. 5. 8. 40.
      46. 33. 45. 19. 7. 6. 6. 6. 6. 6. 6. 6. 6. 13. 9. 7. 6. 6. 7. 7.
      5. 7. 5. 9. 38. 39. 38. 43. 19. 6. 6. 6. 6. 7. 7. 7. 7. 6. 8. 9.
      10. 9. 6. 5. 7. 7. 7. 5. 6. 37. 28. 44. 39. 21. 6. 6. 6. 6. 7. 7.
      7. 7. 6. 8. 9. 8. 6. 6. 6. 6. 5. 6. 6. 6. 12. 12. 11. 14. 8. 6. 6.
      6. 7. 5. 5. 7. 5. 6.</_>
    <_>
      10. 8. 7. 7. 7. 9. 7. 8. 8. 8. 5. 7. 5. 11. 1. 8. 7. 7. 7. 6. 6.
      6. 5. 5. 6. 7. 6. 6. 7. 8. 9. 7. 5. 6. 5. 8. 8. 7. 7. 12. 8. 6. 6.
      5. 5. 6. 6. 7. 8. 7. 8. 8. 8. 6. 5. 5. 7. 8. 6. 9. 5. 11. 37. 48.
      50. 27. 6. 6. 5. 5. 6. 8. 10. 11. 7. 5. 8. 11. 11. 10. 6. 7. 6. 4.
      9. 27. 53. 55. 53. 52. 26. 7. 6. 6. 5. 6. 7. 9. 10. 8. 10. 9. 8.
      6. 7. 2. 9. 10. 31. 47. 51. 50. 49. 52. 50. 28. 7. 6. 6. 5. 5. 6.
      7. 7. 8. 8. 8. 7. 6. 9. 10. 36. 51. 53. 48. 51. 52. 52. 53. 55.
      25. 6. 6. 6. 6. 6. 6. 6. 6. 7. 8. 9. 10. 8. 9. 5. 35. 55. 48. 57.
      51. 52. 53. 49. 52. 28. 6. 6. 6. 6. 6. 6. 6. 6. 7. 17. 11. 6. 6.
      11. 8. 36. 53. 52. 42. 19. 46. 53. 52. 51. 25. 6. 6. 5. 5. 5. 6.
      6. 6. 9. 27. 12. 10. 7. 5. 12. 30. 36. 21. 12. 6. 47. 52. 52. 51.
      26. 7. 6. 6. 6. 6. 5. 6. 7. 8. 42. 15. 8. 8. 7. 6. 8. 7. 10. 6. 4.
      47. 51. 52. 51. 26. 6. 6. 6. 6. 6. 6. 7. 8. 12. 45. 14. 9. 9. 9.
      7. 5. 5. 5. 5. 6. 47. 50. 51. 50. 25. 6. 5. 5. 6. 6. 6. 7. 8. 14.
      40. 12. 11. 7. 6. 8. 7. 8. 6. 7. 7. 47. 49. 50. 51. 25. 7. 6. 6.
      6. 6. 6. 7. 8. 15. 42. 13. 10. 7. 7. 10. 5. 4. 5. 6. 7. 46. 49.
      51. 51. 24. 7. 6. 6. 6. 6. 6. 7. 9. 15. 45. 13. 9. 9. 9. 8. 7. 7.
      6. 6. 7. 47. 50. 51. 50. 22. 7. 6. 6. 6. 6. 6. 8. 10. 15. 38. 13.
      8. 8. 6. 3. 6. 7. 7. 6. 7. 48. 50. 50. 48. 21. 7. 6. 6. 6. 6. 6.
      8. 10. 14. 26. 9. 8. 9. 7. 7. 10. 3. 6. 4. 5. 46. 48. 48. 48. 23.
      8. 7. 6. 6. 5. 6. 7. 9. 12. 21. 12. 7. 7. 7. 6. 6. 6. 6. 7. 4. 45.
      47. 46. 49. 21. 7. 6. 6. 6. 6. 7. 7. 8. 11. 14. 8. 6. 8. 8. 7. 6.
      5. 6. 6. 6. 44. 47. 48. 50. 22. 7. 6. 6. 6. 6. 6. 7. 7. 10. 8. 6.
      8. 9. 7. 5. 6. 7. 6. 6. 4. 47. 46. 51. 45. 19. 7. 6. 6. 6. 6. 6.
      6. 7. 9. 12. 8. 7. 8. 6. 5. 7. 7. 6. 6. 4. 46. 46. 45. 46. 22. 7.
      6. 6. 5. 5. 6. 6. 6. 8. 17. 10. 6. 6. 7. 8. 7. 4. 6. 6. 7. 42. 44.
      31. 44. 21. 6. 6. 6. 5. 5. 6. 6. 6. 7. 12. 10. 9. 9. 6. 6. 6. 5.
      6. 9. 4. 47. 43. 39. 43. 20. 6. 6. 6. 6. 6. 6. 7. 7. 6. 7. 9. 11.
      10. 5. 4. 6. 7. 5. 7. 3. 42. 33. 44. 40. 20. 6. 6. 6. 6. 6. 7. 7.
      7. 6. 9. 7. 7. 7. 7. 8. 7. 5. 8. 4. 9. 18. 11. 17. 23. 8. 6. 6. 6.
      6. 7. 7. 8. 8. 6. 10. 9. 7. 7. 6. 6. 6. 7. 7. 7. 6. 6. 6. 6. 6. 6.
      5. 6. 6. 6. 6. 6. 6. 6. 6.</_>
    <_>
      9. 10. 9. 8. 10. 10. 9. 8. 8. 11. 10. 6. 11. 9. 9. 8. 9. 8. 7. 8.
      8. 8. 7. 7. 7. 7. 8. 5. 4. 6. 7. 6. 6. 6. 8. 9. 7. 9. 5. 8. 9. 8.
      7. 6. 6. 7. 6. 7. 7. 6. 6. 10. 10. 8. 8. 8. 8. 9. 7. 7. 6. 7. 19.
      31. 34. 18. 8. 7. 6. 6. 6. 7. 8. 10. 7. 5. 9. 11. 10. 10. 7. 4. 5.
      8. 6. 15. 33. 50. 54. 50. 29. 7. 7. 6. 6. 6. 7. 9. 11. 7. 8. 7. 7.
      7. 8. 7. 7. 11. 13. 32. 50. 53. 49. 50. 53. 32. 7. 6. 6. 6. 6. 6.
      7. 9. 7. 8. 8. 8. 8. 7. 8. 21. 38. 52. 50. 49. 54. 55. 51. 50. 30.
      7. 6. 6. 6. 5. 5. 5. 6. 7. 8. 8. 9. 9. 5. 8. 29. 55. 52. 56. 52.
      50. 52. 53. 53. 30. 8. 7. 6. 6. 6. 5. 6. 6. 8. 15. 10. 8. 9. 8.
      10. 27. 51. 51. 47. 38. 41. 50. 52. 52. 31. 8. 6. 5. 5. 6. 6. 7.
      7. 9. 34. 11. 6. 9. 8. 8. 27. 48. 31. 18. 7. 35. 51. 53. 54. 29.
      7. 6. 5. 6. 7. 7. 7. 7. 10. 30. 12. 10. 10. 9. 6. 7. 7. 10. 8. 8.
      40. 51. 49. 51. 30. 8. 6. 6. 6. 6. 7. 8. 9. 12. 30. 14. 10. 6. 7.
      8. 9. 6. 5. 5. 7. 41. 51. 50. 51. 30. 8. 7. 6. 6. 6. 6. 8. 9. 13.
      34. 15. 9. 8. 8. 7. 9. 9. 9. 7. 5. 40. 51. 52. 51. 29. 7. 6. 6. 6.
      6. 6. 7. 9. 16. 38. 16. 9. 9. 9. 5. 5. 4. 4. 5. 6. 43. 50. 51. 49.
      29. 7. 6. 6. 6. 6. 6. 7. 9. 16. 30. 14. 10. 7. 7. 6. 8. 8. 4. 6.
      6. 43. 49. 50. 48. 29. 7. 7. 7. 7. 7. 7. 8. 9. 15. 21. 10. 11. 9.
      7. 5. 6. 4. 8. 8. 5. 42. 48. 51. 48. 27. 8. 7. 6. 6. 6. 7. 8. 9.
      15. 29. 11. 8. 7. 8. 6. 7. 5. 5. 6. 4. 43. 49. 51. 47. 26. 8. 6.
      4. 4. 5. 6. 7. 8. 13. 18. 11. 7. 9. 7. 5. 6. 7. 5. 6. 3. 46. 45.
      51. 47. 27. 8. 6. 6. 7. 6. 7. 9. 9. 11. 13. 10. 8. 8. 7. 6. 6. 6.
      6. 3. 7. 40. 47. 48. 49. 29. 7. 5. 6. 6. 6. 6. 8. 8. 10. 9. 8. 8.
      7. 6. 6. 7. 5. 7. 4. 7. 43. 47. 50. 46. 25. 7. 5. 6. 6. 5. 6. 7.
      7. 9. 9. 8. 8. 7. 6. 6. 7. 5. 6. 6. 6. 47. 46. 45. 45. 27. 7. 5.
      6. 6. 5. 5. 7. 7. 8. 13. 9. 7. 8. 6. 6. 6. 6. 6. 6. 8. 42. 44. 30.
      44. 26. 7. 6. 6. 6. 5. 6. 7. 7. 8. 14. 9. 8. 8. 7. 6. 6. 6. 6. 8.
      6. 44. 44. 37. 46. 26. 7. 6. 6. 7. 6. 6. 7. 7. 7. 11. 9. 9. 8. 6.
      6. 7. 5. 4. 7. 4. 41. 36. 44. 43. 26. 7. 5. 6. 7. 6. 6. 8. 8. 7.
      7. 9. 11. 9. 6. 7. 8. 5. 5. 6. 7. 22. 12. 20. 22. 10. 7. 5. 6. 7.
      6. 7. 8. 8. 7. 8. 8. 8. 8. 7. 6. 6. 7. 8. 6. 5. 5. 7. 7. 6. 6. 6.
      6. 6. 6. 6. 6. 6. 6. 6.</_>
    <_>
      9. 7. 7. 8. 9. 8. 7. 8. 9. 5. 8. 8. 7. 4. 8. 6. 8. 7. 6. 6. 6. 5.
      4. 5. 6. 7. 8. 7. 6. 5. 6. 7. 7. 5. 9. 8. 4. 9. 7. 9. 11. 8. 7. 6.
      6. 6. 7. 8. 9. 6. 8. 10. 11. 8. 7. 9. 9. 7. 6. 6. 9. 14. 31. 49.
      53. 32. 8. 6. 6. 6. 6. 7. 9. 11. 7. 5. 7. 8. 9. 9. 9. 7. 6. 8. 6.
      22. 42. 51. 53. 54. 33. 8. 6. 5. 5. 6. 6. 8. 9. 7. 11. 9. 9. 10.
      7. 4. 7. 14. 25. 42. 50. 51. 53. 52. 50. 31. 7. 6. 6. 6. 6. 6. 6.
      6. 7. 7. 5. 7. 10. 8. 9. 27. 48. 51. 53. 51. 51. 53. 51. 53. 37.
      7. 6. 6. 7. 6. 6. 6. 6. 8. 13. 9. 9. 9. 5. 7. 29. 54. 52. 53. 50.
      50. 50. 52. 54. 28. 7. 6. 6. 6. 6. 6. 7. 7. 8. 13. 8. 8. 9. 7. 10.
      29. 52. 51. 45. 30. 37. 54. 52. 49. 35. 8. 7. 5. 5. 5. 6. 7. 8. 9.
      34. 13. 9. 7. 6. 9. 26. 42. 24. 15. 9. 37. 49. 52. 52. 31. 6. 6.
      6. 6. 6. 6. 7. 8. 11. 29. 9. 9. 9. 9. 9. 9. 7. 12. 7. 6. 37. 50.
      52. 52. 31. 7. 6. 6. 6. 6. 6. 7. 9. 13. 50. 14. 9. 8. 8. 8. 5. 5.
      6. 5. 7. 39. 51. 51. 51. 30. 7. 7. 6. 6. 6. 6. 7. 9. 17. 56. 14.
      10. 9. 7. 8. 6. 10. 7. 6. 9. 40. 50. 50. 50. 29. 8. 7. 6. 6. 6. 6.
      8. 9. 15. 46. 12. 12. 9. 6. 9. 6. 5. 6. 5. 7. 38. 49. 51. 50. 29.
      8. 7. 6. 6. 5. 6. 8. 10. 17. 50. 15. 10. 8. 6. 8. 6. 6. 5. 4. 7.
      38. 50. 51. 50. 27. 7. 7. 6. 6. 6. 6. 8. 10. 14. 45. 14. 7. 9. 10.
      6. 4. 6. 6. 5. 8. 39. 50. 50. 48. 25. 7. 6. 6. 6. 6. 6. 8. 9. 15.
      33. 13. 8. 6. 7. 6. 7. 5. 5. 5. 7. 37. 48. 49. 48. 25. 6. 6. 6. 6.
      6. 6. 8. 9. 13. 36. 13. 6. 10. 5. 4. 8. 5. 5. 6. 3. 42. 45. 50.
      45. 23. 7. 6. 6. 6. 6. 7. 8. 8. 10. 18. 9. 7. 10. 9. 7. 7. 5. 6.
      4. 8. 37. 48. 49. 50. 27. 7. 6. 6. 6. 6. 6. 7. 8. 10. 10. 10. 7.
      6. 6. 6. 6. 8. 8. 5. 6. 39. 46. 49. 45. 22. 7. 6. 6. 5. 6. 6. 6.
      7. 9. 7. 9. 10. 9. 8. 7. 5. 4. 5. 6. 5. 42. 45. 44. 44. 23. 7. 6.
      6. 6. 5. 6. 6. 6. 8. 12. 7. 8. 10. 7. 7. 8. 5. 5. 6. 7. 38. 45.
      31. 44. 24. 7. 6. 6. 6. 6. 6. 6. 7. 7. 17. 9. 7. 7. 4. 5. 9. 7. 6.
      8. 6. 41. 45. 36. 44. 22. 6. 6. 6. 6. 6. 6. 7. 7. 7. 11. 10. 9. 9.
      9. 6. 4. 4. 5. 8. 3. 37. 35. 43. 41. 21. 6. 6. 6. 6. 6. 6. 7. 7.
      6. 7. 12. 9. 6. 9. 7. 4. 8. 5. 6. 6. 19. 13. 21. 24. 10. 6. 6. 6.
      6. 6. 6. 7. 7. 7. 8. 8. 7. 6. 7. 7. 5. 6. 7. 6. 6. 6. 6. 6. 5. 6.
      6. 6. 6. 6. 6. 5. 5. 6. 6.</_>
    <_>
      9. 13. 9. 12. 11. 6. 10. 7. 6. 13. 7. 9. 9. 6. 10. 8. 8. 8. 8. 8.
      8. 7. 7. 7. 7. 9. 10. 5. 7. 7. 6. 9. 7. 10. 7. 7. 8. 8. 6. 6. 7.
      7. 7. 6. 6. 6. 6. 7. 8. 6. 7. 8. 8. 7. 7. 7. 8. 8. 7. 4. 6. 7. 20.
      31. 32. 17. 7. 6. 5. 5. 6. 7. 9. 10. 7. 7. 7. 10. 10. 9. 8. 5. 5.
      5. 6. 14. 35. 53. 51. 53. 25. 7. 6. 6. 6. 6. 8. 10. 11. 5. 9. 7.
      8. 8. 8. 8. 8. 11. 13. 35. 49. 52. 52. 50. 57. 24. 6. 6. 6. 6. 6.
      7. 8. 8. 8. 7. 7. 8. 8. 5. 8. 22. 38. 53. 50. 51. 50. 53. 53. 51.
      25. 7. 7. 6. 6. 6. 6. 6. 6. 6. 9. 10. 8. 10. 6. 8. 33. 56. 50. 55.
      54. 51. 50. 53. 52. 28. 7. 7. 7. 6. 6. 6. 6. 6. 8. 15. 12. 4. 9.
      8. 8. 32. 51. 52. 50. 35. 48. 54. 52. 51. 24. 6. 6. 6. 6. 6. 7. 7.
      7. 9. 48. 10. 8. 8. 8. 7. 34. 48. 31. 16. 5. 47. 54. 54. 51. 23.
      8. 7. 5. 5. 6. 6. 6. 7. 10. 56. 14. 9. 8. 12. 5. 8. 3. 10. 7. 6.
      46. 49. 49. 50. 25. 8. 7. 6. 6. 6. 7. 8. 8. 14. 51. 13. 12. 7. 8.
      6. 9. 9. 4. 6. 8. 48. 50. 53. 52. 25. 7. 6. 6. 6. 6. 7. 8. 9. 13.
      48. 11. 11. 7. 8. 8. 7. 6. 7. 7. 6. 46. 51. 54. 51. 20. 6. 6. 6.
      6. 6. 6. 8. 9. 15. 57. 16. 10. 5. 7. 9. 6. 8. 6. 6. 6. 46. 50. 51.
      50. 22. 7. 7. 6. 6. 6. 6. 8. 9. 17. 40. 10. 9. 9. 9. 7. 4. 6. 6.
      6. 7. 49. 52. 51. 49. 23. 7. 6. 6. 6. 6. 6. 7. 9. 16. 43. 15. 8.
      7. 7. 8. 7. 6. 6. 5. 6. 47. 51. 50. 47. 18. 7. 6. 5. 5. 6. 6. 7.
      8. 16. 27. 10. 8. 8. 7. 6. 7. 4. 6. 7. 8. 47. 48. 49. 47. 19. 7.
      6. 5. 6. 7. 7. 8. 9. 13. 22. 14. 8. 7. 7. 7. 7. 4. 6. 6. 4. 50.
      46. 47. 49. 18. 7. 6. 6. 5. 6. 7. 8. 9. 12. 12. 8. 7. 8. 6. 5. 5.
      5. 5. 5. 9. 44. 50. 48. 51. 21. 6. 6. 6. 6. 6. 7. 7. 8. 10. 9. 7.
      8. 10. 8. 6. 7. 8. 6. 8. 8. 46. 48. 50. 45. 15. 6. 6. 6. 6. 6. 6.
      7. 7. 9. 11. 7. 5. 5. 5. 5. 5. 4. 5. 7. 6. 49. 42. 46. 46. 16. 6.
      6. 6. 6. 6. 6. 6. 6. 7. 16. 11. 8. 7. 7. 8. 8. 6. 5. 4. 9. 46. 39.
      33. 48. 15. 6. 6. 6. 6. 6. 6. 6. 6. 6. 10. 8. 8. 7. 4. 4. 5. 5. 6.
      5. 9. 49. 40. 38. 47. 13. 6. 6. 6. 6. 6. 6. 6. 6. 7. 8. 8. 10. 9.
      6. 6. 7. 6. 5. 7. 7. 41. 32. 43. 41. 15. 6. 6. 6. 6. 6. 6. 7. 7.
      7. 8. 7. 8. 7. 5. 6. 6. 5. 5. 7. 8. 15. 9. 18. 19. 6. 6. 6. 5. 6.
      6. 7. 7. 8. 6. 10. 9. 8. 8. 7. 6. 6. 7. 7. 6. 6. 6. 7. 6. 6. 6. 6.
      6. 6. 5. 5. 6. 6. 6. 6.</_>
    <_>
      8. 7. 8. 8. 7. 10. 8. 6. 8. 6. 6. 7. 7. 9. 7. 8. 7. 7. 7. 6. 5. 6.
      7. 8. 6. 8. 8. 8. 7. 6. 7. 7. 9. 6. 8. 9. 12. 25. 31. 35. 19. 7.
      7. 6. 6. 6. 7. 9. 10. 6. 8. 10. 10. 10. 11. 7. 6. 7. 7. 6. 11. 33.
      53. 53. 51. 22. 7. 7. 6. 5. 6. 8. 10. 11. 7. 7. 8. 8. 9. 11. 5. 6.
      9. 12. 33. 48. 56. 52. 52. 52. 24. 7. 6. 5. 5. 6. 7. 8. 8. 7. 9.
      9. 8. 6. 8. 5. 20. 30. 45. 49. 54. 50. 51. 56. 54. 20. 7. 6. 5. 5.
      6. 6. 7. 6. 7. 10. 8. 10. 8. 7. 7. 35. 52. 56. 49. 55. 49. 54. 49.
      53. 26. 7. 6. 6. 6. 6. 7. 7. 7. 7. 12. 7. 8. 9. 7. 7. 38. 53. 52.
      50. 48. 49. 53. 51. 52. 23. 7. 7. 7. 6. 6. 7. 7. 8. 9. 23. 11. 9.
      9. 8. 8. 39. 49. 51. 37. 14. 41. 50. 53. 50. 26. 8. 7. 7. 6. 5. 6.
      7. 8. 11. 48. 13. 8. 7. 8. 10. 24. 30. 15. 9. 8. 40. 52. 53. 51.
      26. 8. 7. 5. 6. 6. 7. 7. 8. 12. 58. 15. 9. 9. 8. 7. 10. 9. 10. 6.
      9. 41. 52. 53. 50. 26. 8. 7. 6. 6. 6. 7. 8. 9. 13. 61. 12. 9. 10.
      9. 7. 7. 6. 7. 5. 9. 41. 51. 51. 50. 26. 8. 7. 6. 6. 6. 6. 8. 9.
      15. 70. 14. 11. 10. 7. 7. 8. 9. 8. 6. 9. 40. 50. 50. 50. 27. 7. 7.
      6. 6. 6. 6. 8. 9. 16. 74. 16. 10. 8. 6. 8. 7. 6. 8. 6. 10. 41. 50.
      52. 51. 26. 7. 7. 6. 6. 6. 6. 8. 10. 16. 61. 12. 9. 9. 8. 8. 9. 7.
      6. 5. 10. 41. 52. 53. 51. 25. 8. 7. 6. 6. 6. 7. 8. 9. 16. 51. 13.
      11. 9. 8. 6. 8. 6. 6. 5. 10. 40. 50. 51. 49. 24. 8. 7. 6. 6. 7. 7.
      8. 9. 15. 50. 14. 7. 6. 8. 8. 10. 4. 7. 6. 10. 39. 47. 48. 48. 24.
      8. 7. 5. 6. 7. 7. 8. 9. 13. 49. 11. 9. 10. 4. 10. 7. 5. 7. 7. 9.
      38. 48. 49. 49. 26. 7. 6. 6. 6. 7. 7. 7. 8. 12. 29. 9. 7. 8. 6. 7.
      6. 6. 6. 7. 9. 37. 47. 50. 49. 25. 7. 6. 6. 6. 7. 7. 7. 8. 11. 10.
      9. 7. 8. 8. 6. 5. 7. 6. 7. 9. 37. 47. 50. 49. 25. 7. 6. 6. 6. 6.
      6. 7. 8. 9. 6. 8. 8. 8. 9. 7. 5. 7. 6. 6. 9. 38. 47. 47. 46. 25.
      7. 6. 6. 6. 6. 6. 6. 7. 8. 12. 6. 9. 8. 6. 7. 5. 6. 6. 5. 9. 39.
      45. 41. 43. 26. 7. 6. 6. 6. 6. 5. 6. 7. 7. 16. 6. 9. 8. 4. 8. 6.
      5. 6. 6. 10. 39. 43. 39. 41. 26. 7. 6. 6. 6. 6. 6. 6. 7. 7. 13. 9.
      9. 9. 6. 6. 7. 5. 6. 7. 11. 38. 42. 40. 43. 26. 7. 6. 6. 6. 6. 6.
      7. 7. 7. 6. 12. 8. 9. 8. 4. 8. 5. 5. 8. 11. 35. 40. 41. 44. 25. 8.
      7. 6. 6. 6. 6. 7. 8. 7. 8. 11. 9. 8. 7. 6. 7. 5. 5. 6. 11. 28. 26.
      31. 34. 16. 7. 6. 6. 6. 5. 7. 9. 8. 6.</_>
    <_>
      7. 12. 11. 10. 11. 8. 6. 10. 7. 7. 8. 10. 7. 11. 9. 9. 9. 9. 8. 7.
      7. 9. 10. 10. 7. 9. 9. 6. 5. 9. 9. 6. 6. 10. 9. 7. 8. 4. 9. 8. 8.
      6. 7. 7. 6. 6. 7. 7. 6. 6. 6. 8. 8. 7. 7. 8. 8. 7. 4. 5. 6. 10.
      11. 16. 16. 13. 6. 6. 6. 6. 6. 6. 7. 7. 7. 6. 9. 12. 10. 7. 7. 8.
      6. 11. 7. 7. 19. 35. 49. 49. 39. 8. 7. 6. 5. 6. 7. 9. 11. 8. 9. 8.
      9. 9. 7. 7. 8. 7. 6. 19. 33. 45. 50. 51. 51. 42. 8. 6. 5. 5. 6. 6.
      8. 10. 8. 8. 7. 7. 7. 6. 6. 15. 26. 41. 47. 48. 50. 53. 51. 51.
      38. 7. 6. 5. 6. 6. 6. 6. 7. 7. 10. 8. 7. 8. 7. 7. 23. 48. 50. 54.
      52. 50. 53. 51. 53. 40. 7. 6. 6. 7. 7. 5. 5. 7. 8. 16. 11. 6. 7.
      8. 8. 25. 53. 52. 51. 44. 42. 50. 51. 53. 37. 8. 6. 5. 6. 6. 5. 6.
      8. 9. 29. 11. 9. 8. 8. 7. 24. 48. 43. 30. 14. 31. 49. 51. 54. 36.
      8. 7. 7. 6. 6. 6. 7. 8. 11. 36. 14. 9. 7. 8. 8. 12. 19. 10. 8. 5.
      31. 49. 51. 53. 36. 7. 7. 6. 6. 6. 6. 7. 9. 11. 34. 14. 11. 8. 7.
      8. 7. 4. 6. 7. 7. 33. 50. 49. 51. 34. 7. 6. 6. 6. 6. 6. 7. 9. 14.
      34. 13. 12. 9. 7. 7. 8. 6. 10. 8. 5. 30. 48. 49. 51. 33. 7. 6. 6.
      6. 6. 6. 8. 9. 14. 44. 15. 10. 10. 9. 7. 7. 6. 6. 6. 4. 30. 49.
      51. 51. 31. 7. 7. 6. 6. 6. 6. 7. 9. 17. 41. 14. 9. 9. 10. 7. 6. 7.
      6. 8. 9. 34. 50. 50. 50. 31. 8. 7. 6. 6. 6. 6. 7. 9. 13. 29. 12.
      10. 8. 9. 7. 7. 8. 4. 7. 7. 32. 48. 49. 50. 30. 7. 7. 6. 6. 6. 6.
      7. 9. 14. 24. 13. 12. 6. 7. 9. 6. 5. 6. 7. 6. 31. 49. 50. 48. 26.
      7. 6. 6. 6. 6. 6. 7. 9. 13. 24. 15. 9. 8. 8. 7. 7. 6. 5. 6. 4. 34.
      46. 46. 50. 30. 7. 6. 6. 7. 7. 6. 7. 8. 10. 17. 11. 8. 8. 7. 6. 6.
      5. 7. 7. 8. 33. 47. 49. 50. 26. 7. 6. 6. 6. 6. 6. 7. 8. 9. 11. 7.
      8. 9. 7. 6. 6. 6. 4. 5. 5. 36. 43. 48. 45. 28. 7. 6. 5. 6. 6. 6.
      6. 7. 8. 10. 7. 8. 9. 7. 6. 6. 6. 6. 5. 5. 38. 44. 39. 42. 29. 6.
      6. 6. 6. 6. 6. 6. 7. 7. 12. 9. 7. 7. 6. 5. 6. 5. 6. 6. 8. 35. 47.
      31. 42. 24. 6. 6. 6. 6. 6. 6. 6. 6. 7. 14. 10. 8. 7. 6. 6. 7. 6.
      3. 9. 6. 35. 40. 41. 45. 25. 6. 6. 6. 6. 6. 7. 7. 6. 6. 12. 10. 9.
      9. 7. 7. 7. 6. 5. 10. 6. 29. 25. 37. 35. 23. 5. 6. 6. 6. 6. 7. 7.
      6. 6. 7. 7. 9. 9. 7. 7. 7. 6. 9. 2. 8. 8. 8. 7. 11. 5. 5. 6. 6. 5.
      6. 7. 7. 6. 5. 9. 9. 8. 7. 7. 8. 7. 6. 8. 5. 6. 7. 7. 6. 7. 7. 7.
      6. 6. 7. 7. 6. 5. 5. 6.</_>
    <_>
      8. 8. 6. 4. 6. 9. 7. 8. 4. 8. 8. 6. 10. 7. 10. 8. 6. 6. 6. 7. 6.
      6. 6. 8. 6. 6. 8. 9. 8. 7. 7. 6. 7. 7. 8. 7. 11. 28. 37. 35. 17.
      8. 7. 6. 5. 5. 6. 9. 11. 8. 8. 10. 12. 11. 9. 6. 6. 7. 5. 6. 15.
      33. 48. 49. 48. 32. 8. 7. 5. 5. 6. 7. 9. 12. 8. 9. 7. 8. 8. 7. 4.
      9. 10. 18. 29. 42. 49. 51. 51. 52. 28. 7. 6. 6. 6. 6. 6. 7. 8. 6.
      9. 6. 7. 7. 7. 6. 22. 29. 41. 47. 50. 51. 50. 52. 54. 26. 7. 6. 6.
      6. 6. 6. 5. 6. 6. 9. 7. 10. 9. 8. 9. 36. 50. 50. 49. 47. 52. 52.
      49. 52. 30. 8. 6. 6. 6. 6. 6. 6. 7. 7. 10. 6. 8. 7. 6. 6. 38. 53.
      49. 51. 47. 49. 51. 50. 52. 26. 8. 6. 5. 5. 6. 6. 7. 7. 8. 16. 9.
      8. 8. 8. 7. 36. 49. 48. 36. 25. 39. 53. 50. 50. 28. 7. 6. 6. 6. 7.
      6. 6. 6. 10. 31. 11. 9. 7. 9. 8. 23. 34. 22. 14. 11. 39. 50. 52.
      51. 27. 7. 6. 5. 5. 6. 6. 7. 8. 12. 35. 10. 10. 7. 9. 7. 10. 11.
      11. 7. 8. 40. 50. 52. 51. 27. 7. 6. 6. 6. 6. 6. 7. 9. 10. 44. 12.
      10. 6. 8. 9. 7. 3. 6. 5. 9. 41. 50. 50. 50. 26. 7. 6. 6. 6. 6. 6.
      7. 9. 11. 51. 13. 12. 7. 7. 9. 9. 9. 7. 7. 11. 41. 49. 49. 49. 26.
      7. 6. 5. 5. 6. 6. 7. 8. 15. 53. 12. 11. 8. 8. 7. 5. 8. 6. 6. 10.
      40. 49. 50. 50. 27. 7. 6. 5. 5. 6. 6. 7. 8. 17. 53. 13. 9. 8. 10.
      6. 5. 6. 5. 5. 10. 40. 50. 51. 50. 24. 7. 6. 6. 6. 6. 6. 7. 9. 16.
      46. 14. 8. 6. 10. 7. 7. 8. 6. 7. 11. 41. 50. 50. 47. 21. 7. 6. 6.
      6. 6. 6. 7. 9. 14. 35. 12. 9. 7. 9. 4. 6. 5. 5. 6. 11. 40. 48. 49.
      46. 20. 7. 6. 5. 5. 6. 6. 7. 8. 13. 40. 12. 9. 10. 5. 7. 6. 6. 8.
      5. 9. 40. 47. 46. 47. 23. 8. 7. 6. 5. 6. 7. 7. 8. 12. 36. 11. 7.
      9. 6. 7. 5. 6. 7. 6. 10. 40. 47. 48. 48. 22. 7. 6. 6. 5. 6. 7. 7.
      7. 10. 24. 9. 7. 7. 6. 7. 5. 6. 6. 7. 11. 39. 46. 49. 48. 20. 7.
      6. 6. 5. 6. 6. 6. 6. 9. 10. 8. 10. 7. 5. 7. 5. 5. 6. 7. 12. 40.
      46. 47. 46. 20. 6. 6. 6. 6. 6. 6. 6. 6. 8. 8. 8. 9. 7. 6. 6. 5. 6.
      5. 6. 12. 41. 44. 42. 43. 21. 6. 6. 6. 6. 6. 6. 6. 6. 8. 15. 8. 5.
      7. 9. 6. 5. 7. 6. 5. 12. 40. 42. 39. 42. 21. 7. 6. 6. 6. 6. 6. 6.
      6. 7. 15. 9. 6. 8. 7. 6. 6. 6. 6. 7. 12. 38. 40. 39. 42. 20. 7. 6.
      6. 6. 6. 7. 7. 7. 6. 9. 10. 10. 8. 4. 6. 8. 4. 7. 8. 12. 36. 38.
      39. 42. 19. 7. 6. 6. 6. 6. 7. 7. 7. 5. 8. 10. 10. 7. 5. 6. 6. 6.
      6. 6. 8. 29. 22. 31. 34. 18. 7. 6. 6. 6. 5. 7. 8. 7. 6.</_>
    <_>
      9. 9. 8. 9. 9. 9. 8. 8. 9. 10. 9. 7. 11. 7. 7. 9. 8. 8. 8. 8. 8.
      7. 6. 6. 6. 7. 6. 4. 5. 7. 9. 9. 8. 6. 7. 7. 5. 9. 8. 10. 7. 7. 6.
      6. 6. 6. 6. 7. 8. 6. 10. 11. 11. 9. 8. 7. 7. 6. 6. 7. 7. 10. 23.
      34. 38. 24. 7. 6. 5. 5. 6. 7. 9. 11. 7. 5. 7. 9. 10. 10. 8. 6. 6.
      8. 5. 16. 37. 52. 53. 51. 35. 8. 7. 6. 6. 6. 8. 10. 11. 7. 11. 9.
      8. 9. 8. 6. 7. 10. 16. 36. 52. 52. 49. 51. 54. 30. 7. 6. 6. 6. 6.
      6. 7. 8. 7. 6. 6. 8. 8. 7. 11. 26. 42. 54. 52. 50. 54. 55. 52. 52.
      32. 7. 6. 6. 6. 6. 6. 6. 6. 8. 10. 9. 10. 9. 4. 8. 29. 54. 51. 53.
      50. 51. 52. 50. 52. 34. 7. 6. 6. 6. 6. 6. 6. 7. 8. 18. 11. 8. 9.
      7. 10. 28. 49. 53. 49. 38. 40. 50. 54. 54. 30. 7. 6. 5. 5. 6. 6.
      7. 8. 9. 31. 13. 7. 6. 9. 7. 28. 44. 31. 18. 7. 35. 50. 52. 52.
      32. 7. 6. 6. 6. 6. 6. 7. 8. 11. 37. 13. 8. 9. 12. 6. 9. 9. 10. 6.
      5. 36. 50. 50. 49. 30. 7. 6. 5. 6. 6. 7. 8. 9. 11. 44. 13. 10. 6.
      7. 7. 8. 5. 5. 6. 8. 38. 50. 51. 51. 33. 7. 6. 6. 6. 6. 7. 8. 9.
      14. 44. 9. 11. 7. 6. 8. 9. 9. 8. 8. 7. 36. 48. 51. 51. 30. 8. 7.
      6. 6. 6. 6. 8. 9. 16. 56. 13. 12. 9. 8. 8. 5. 4. 5. 6. 7. 36. 49.
      52. 50. 28. 8. 7. 6. 6. 6. 6. 7. 9. 16. 62. 16. 11. 8. 7. 7. 7. 8.
      5. 7. 8. 38. 50. 51. 51. 30. 7. 6. 5. 5. 6. 6. 8. 9. 15. 48. 10.
      9. 8. 8. 6. 7. 7. 7. 6. 7. 36. 47. 48. 48. 28. 7. 6. 5. 5. 6. 6.
      8. 9. 14. 45. 12. 9. 8. 9. 6. 7. 5. 7. 5. 5. 37. 51. 51. 47. 25.
      8. 7. 6. 6. 6. 6. 7. 9. 13. 50. 11. 7. 9. 6. 10. 5. 5. 7. 6. 6.
      36. 46. 47. 47. 28. 7. 6. 6. 6. 7. 7. 7. 8. 12. 17. 5. 8. 11. 7.
      6. 5. 8. 4. 5. 7. 37. 46. 51. 48. 30. 6. 6. 5. 6. 6. 6. 6. 7. 10.
      11. 11. 7. 6. 8. 8. 6. 6. 7. 6. 7. 35. 45. 50. 45. 26. 7. 6. 6. 6.
      6. 6. 6. 7. 8. 5. 9. 8. 6. 9. 7. 4. 6. 6. 6. 7. 34. 45. 44. 46.
      28. 7. 7. 6. 6. 6. 6. 6. 7. 7. 12. 6. 7. 7. 7. 8. 4. 7. 3. 6. 8.
      35. 44. 33. 44. 27. 7. 6. 5. 6. 5. 5. 6. 6. 7. 23. 9. 8. 7. 6. 8.
      5. 6. 6. 7. 7. 35. 46. 35. 45. 26. 7. 6. 6. 6. 6. 6. 6. 7. 7. 7.
      8. 11. 11. 7. 4. 5. 6. 7. 6. 6. 31. 37. 39. 42. 27. 7. 6. 6. 6. 6.
      6. 7. 8. 6. 7. 13. 6. 5. 8. 7. 10. 6. 4. 6. 6. 22. 14. 23. 21. 15.
      6. 6. 5. 6. 6. 6. 7. 8. 6. 8. 8. 7. 7. 7. 7. 6. 6. 8. 7. 6. 6. 6.
      6. 6. 6. 5. 6. 6. 6. 6. 6. 6. 6. 6.</_>
    <_>
      10. 7. 7. 10. 4. 8. 8. 5. 6. 5. 8. 9. 19. 28. 32. 21. 9. 6. 5. 5.
      5. 6. 9. 10. 9. 6. 10. 14. 12. 5. 8. 6. 8. 8. 3. 10. 28. 48. 54.
      49. 33. 10. 6. 6. 6. 6. 7. 10. 11. 8. 7. 8. 7. 7. 9. 11. 4. 6. 8.
      20. 37. 48. 55. 53. 49. 34. 10. 6. 6. 6. 6. 7. 9. 9. 8. 11. 12. 7.
      7. 8. 5. 10. 23. 38. 48. 54. 51. 51. 50. 50. 34. 10. 6. 5. 6. 5.
      5. 6. 6. 6. 8. 12. 6. 8. 10. 10. 32. 51. 53. 53. 50. 51. 54. 53.
      51. 33. 11. 7. 6. 7. 6. 6. 6. 6. 6. 13. 14. 9. 9. 9. 11. 35. 47.
      49. 53. 51. 51. 52. 49. 49. 31. 11. 7. 6. 7. 6. 7. 7. 7. 9. 23. 9.
      11. 10. 7. 11. 35. 51. 55. 50. 40. 41. 50. 52. 54. 33. 11. 7. 5.
      6. 6. 6. 7. 6. 9. 64. 20. 11. 8. 7. 13. 30. 47. 40. 25. 15. 32.
      51. 51. 50. 32. 12. 7. 6. 6. 6. 6. 7. 6. 10. 80. 13. 13. 10. 8. 8.
      17. 16. 6. 7. 12. 34. 49. 52. 50. 32. 10. 7. 5. 6. 6. 6. 7. 9. 13.
      89. 16. 13. 9. 8. 7. 10. 7. 6. 6. 12. 34. 48. 51. 50. 33. 10. 7.
      6. 6. 6. 6. 7. 9. 16. 96. 16. 14. 8. 8. 7. 7. 5. 6. 7. 12. 34. 48.
      51. 50. 33. 10. 8. 6. 6. 6. 6. 7. 9. 19. 98. 15. 14. 9. 8. 8. 6.
      9. 7. 7. 12. 34. 47. 50. 49. 32. 11. 8. 6. 6. 6. 6. 7. 9. 16. 100.
      16. 13. 8. 7. 7. 5. 8. 6. 7. 12. 34. 47. 50. 49. 33. 11. 8. 6. 6.
      6. 6. 7. 9. 24. 101. 16. 10. 7. 9. 8. 6. 5. 6. 6. 12. 34. 48. 50.
      49. 32. 10. 8. 6. 6. 6. 6. 7. 9. 20. 95. 14. 8. 8. 10. 8. 8. 6. 6.
      6. 12. 34. 48. 50. 48. 30. 10. 7. 6. 6. 6. 6. 7. 9. 22. 88. 12. 8.
      9. 9. 4. 8. 6. 7. 7. 12. 34. 48. 49. 47. 28. 10. 7. 5. 6. 6. 6. 7.
      9. 17. 90. 11. 6. 8. 10. 6. 6. 5. 6. 6. 12. 32. 46. 49. 46. 31.
      11. 7. 6. 6. 6. 6. 8. 8. 21. 76. 16. 10. 8. 6. 5. 6. 6. 6. 7. 12.
      32. 46. 49. 45. 30. 11. 7. 5. 6. 6. 6. 8. 8. 13. 34. 6. 8. 9. 7.
      7. 6. 5. 6. 7. 12. 32. 46. 49. 45. 31. 10. 6. 5. 6. 5. 6. 8. 8.
      11. 12. 7. 8. 8. 7. 7. 6. 6. 6. 6. 12. 32. 45. 48. 45. 31. 10. 6.
      5. 6. 5. 6. 7. 7. 8. 7. 10. 8. 9. 8. 6. 4. 6. 6. 6. 12. 31. 43.
      45. 43. 30. 10. 6. 5. 6. 5. 5. 6. 6. 8. 7. 9. 7. 8. 8. 6. 4. 5. 6.
      6. 12. 30. 41. 42. 40. 28. 10. 7. 6. 6. 6. 6. 6. 6. 6. 17. 12. 8.
      6. 5. 4. 7. 8. 6. 6. 12. 31. 41. 41. 39. 29. 10. 6. 6. 7. 6. 6. 7.
      7. 8. 11. 6. 8. 8. 8. 6. 7. 6. 6. 6. 13. 31. 41. 41. 40. 31. 9. 6.
      5. 7. 6. 7. 8. 7. 7. 8. 9. 10. 8. 7. 6. 6. 6. 6. 7. 12. 28. 35.
      39. 43. 29. 10. 6. 5. 6. 6. 6. 8. 8. 7.</_>
    <_>
      7. 11. 11. 12. 10. 8. 9. 7. 9. 9. 9. 10. 8. 9. 10. 9. 9. 8. 7. 8.
      8. 8. 7. 8. 8. 10. 9. 6. 6. 7. 9. 9. 7. 9. 7. 7. 7. 8. 8. 10. 6.
      8. 7. 6. 6. 6. 6. 6. 7. 6. 8. 8. 9. 7. 7. 9. 9. 9. 8. 6. 8. 8. 16.
      18. 23. 15. 8. 7. 6. 6. 6. 7. 9. 10. 7. 7. 8. 13. 10. 9. 7. 6. 7.
      6. 7. 16. 27. 49. 54. 50. 23. 8. 7. 6. 7. 7. 8. 10. 12. 6. 8. 7.
      10. 7. 9. 6. 8. 9. 12. 26. 43. 47. 53. 52. 51. 26. 6. 5. 5. 6. 6.
      6. 7. 9. 6. 9. 7. 8. 6. 9. 6. 22. 32. 46. 52. 54. 52. 53. 53. 53.
      25. 7. 6. 6. 6. 6. 5. 6. 6. 7. 9. 10. 9. 8. 10. 7. 36. 53. 48. 51.
      50. 53. 53. 53. 52. 26. 8. 7. 6. 6. 6. 6. 6. 6. 7. 12. 11. 6. 8.
      11. 5. 38. 54. 54. 47. 39. 48. 52. 54. 51. 24. 7. 6. 5. 5. 6. 6.
      6. 6. 9. 23. 14. 8. 8. 7. 10. 35. 46. 37. 20. 8. 49. 53. 52. 50.
      23. 6. 6. 5. 6. 6. 6. 7. 7. 11. 21. 10. 8. 10. 9. 6. 14. 14. 8. 5.
      6. 49. 50. 50. 51. 26. 8. 7. 6. 6. 6. 6. 7. 8. 11. 34. 15. 8. 7.
      8. 7. 8. 6. 7. 7. 9. 49. 50. 52. 51. 22. 8. 7. 6. 6. 6. 6. 7. 9.
      13. 36. 14. 10. 7. 9. 10. 7. 5. 10. 7. 6. 46. 50. 54. 52. 21. 7.
      6. 5. 5. 6. 6. 8. 10. 15. 31. 11. 12. 9. 9. 10. 6. 5. 4. 4. 7. 49.
      51. 52. 51. 23. 7. 6. 5. 5. 6. 6. 8. 10. 15. 29. 11. 12. 8. 7. 7.
      6. 9. 7. 6. 9. 51. 51. 49. 48. 22. 8. 7. 6. 6. 6. 7. 8. 9. 16. 23.
      9. 10. 8. 8. 5. 5. 5. 7. 5. 6. 47. 49. 49. 48. 20. 8. 7. 6. 6. 6.
      7. 8. 9. 15. 29. 12. 9. 8. 7. 5. 7. 6. 5. 6. 8. 49. 50. 50. 49.
      19. 7. 6. 5. 6. 6. 6. 8. 9. 12. 21. 11. 6. 8. 8. 6. 6. 6. 5. 6. 5.
      46. 46. 47. 51. 19. 7. 6. 6. 6. 6. 7. 7. 8. 11. 11. 8. 8. 9. 7. 6.
      6. 6. 7. 7. 7. 46. 51. 50. 48. 19. 7. 7. 6. 6. 6. 7. 7. 8. 10. 7.
      7. 8. 9. 7. 7. 7. 5. 4. 6. 4. 47. 48. 50. 44. 22. 7. 7. 6. 6. 6.
      6. 7. 7. 8. 12. 8. 6. 7. 7. 8. 8. 5. 7. 6. 6. 48. 44. 41. 45. 23.
      7. 6. 6. 6. 6. 6. 7. 7. 7. 16. 9. 6. 7. 7. 7. 7. 6. 9. 4. 9. 46.
      43. 32. 47. 15. 6. 6. 6. 6. 6. 7. 7. 8. 7. 13. 9. 8. 9. 6. 5. 6.
      7. 6. 5. 5. 49. 40. 40. 48. 17. 6. 6. 6. 6. 7. 7. 8. 8. 7. 9. 8.
      9. 9. 6. 5. 6. 7. 6. 8. 4. 40. 27. 38. 37. 19. 6. 6. 6. 6. 7. 7.
      7. 8. 6. 7. 8. 9. 8. 6. 7. 8. 6. 7. 5. 6. 13. 9. 11. 15. 6. 6. 6.
      6. 6. 6. 6. 6. 7. 6. 11. 9. 8. 8. 7. 7. 8. 8. 8. 7. 5. 6. 8. 7. 6.
      7. 5. 6. 6. 6. 5. 6. 6. 6. 6.</_>
    <_>
      8. 9. 10. 11. 11. 10. 9. 8. 8. 12. 9. 7. 9. 10. 8. 9. 8. 7. 7. 8.
      8. 7. 7. 6. 7. 8. 7. 6. 6. 6. 7. 8. 8. 7. 7. 7. 8. 8. 4. 6. 8. 8.
      7. 6. 6. 6. 6. 6. 7. 6. 7. 8. 9. 8. 6. 6. 7. 8. 8. 6. 5. 6. 20.
      29. 32. 17. 7. 6. 5. 5. 6. 7. 9. 11. 7. 7. 9. 11. 11. 9. 7. 5. 5.
      10. 6. 15. 31. 51. 53. 51. 27. 7. 6. 6. 6. 6. 7. 10. 12. 8. 9. 7.
      7. 8. 9. 8. 9. 10. 13. 33. 51. 50. 50. 51. 55. 30. 7. 7. 7. 6. 6.
      5. 6. 8. 7. 8. 7. 8. 8. 6. 9. 22. 37. 51. 50. 49. 51. 55. 52. 52.
      27. 7. 6. 6. 6. 6. 5. 5. 6. 7. 9. 9. 10. 10. 5. 10. 32. 56. 51.
      55. 51. 51. 53. 54. 52. 28. 7. 6. 5. 6. 7. 7. 7. 8. 8. 16. 10. 7.
      8. 6. 10. 30. 52. 51. 46. 35. 45. 52. 52. 49. 29. 8. 7. 5. 5. 6.
      6. 7. 8. 9. 27. 13. 8. 8. 7. 10. 32. 45. 29. 17. 7. 46. 51. 52.
      51. 27. 7. 6. 6. 6. 6. 5. 6. 7. 10. 33. 13. 6. 7. 9. 6. 10. 10.
      10. 6. 5. 48. 52. 52. 52. 28. 6. 6. 6. 6. 6. 6. 7. 8. 13. 36. 13.
      9. 8. 11. 9. 7. 5. 5. 5. 8. 50. 52. 50. 49. 24. 6. 6. 5. 6. 6. 6.
      8. 9. 15. 38. 15. 12. 7. 8. 8. 8. 10. 7. 7. 7. 48. 51. 52. 52. 25.
      7. 7. 6. 6. 6. 6. 8. 10. 17. 37. 14. 11. 7. 8. 8. 5. 5. 8. 7. 6.
      46. 50. 53. 53. 25. 8. 7. 6. 6. 6. 7. 8. 10. 16. 33. 13. 10. 8.
      10. 9. 8. 6. 6. 7. 9. 49. 50. 50. 48. 22. 7. 6. 6. 6. 6. 7. 9. 11.
      14. 28. 13. 9. 8. 7. 4. 7. 6. 4. 5. 7. 49. 51. 50. 48. 22. 7. 6.
      6. 6. 6. 7. 8. 10. 15. 25. 11. 7. 8. 9. 5. 9. 5. 8. 5. 5. 47. 50.
      49. 47. 21. 7. 7. 6. 6. 6. 6. 7. 8. 13. 21. 13. 7. 7. 7. 7. 7. 5.
      5. 8. 5. 46. 49. 46. 48. 22. 6. 6. 6. 6. 7. 7. 8. 8. 11. 11. 9. 9.
      9. 7. 5. 6. 6. 6. 6. 7. 46. 48. 48. 50. 24. 6. 6. 6. 6. 6. 7. 7.
      8. 9. 7. 6. 8. 10. 8. 6. 6. 6. 7. 5. 5. 49. 45. 50. 46. 19. 6. 6.
      6. 6. 6. 6. 7. 7. 9. 11. 8. 7. 8. 8. 8. 7. 5. 7. 4. 5. 48. 44. 43.
      47. 20. 6. 6. 6. 6. 6. 6. 6. 6. 7. 15. 10. 7. 7. 7. 8. 7. 5. 7. 5.
      9. 45. 42. 30. 46. 20. 6. 6. 6. 6. 6. 6. 6. 6. 6. 12. 10. 9. 8. 6.
      6. 7. 6. 6. 8. 6. 49. 42. 40. 46. 21. 6. 6. 6. 6. 6. 6. 6. 7. 6.
      9. 9. 9. 8. 6. 6. 7. 6. 4. 7. 4. 41. 31. 44. 41. 21. 6. 6. 6. 6.
      6. 7. 7. 7. 6. 9. 8. 8. 7. 6. 7. 7. 5. 8. 5. 8. 13. 6. 12. 19. 5.
      6. 6. 6. 6. 6. 7. 7. 8. 6. 10. 9. 6. 9. 6. 7. 6. 7. 7. 6. 6. 6. 6.
      6. 5. 6. 5. 6. 6. 7. 6. 6. 6. 6. 6.</_>
    <_>
      11. 8. 6. 7. 6. 11. 5. 7. 6. 11. 8. 11. 7. 7. 7. 8. 7. 7. 7. 7. 6.
      5. 5. 6. 6. 7. 7. 7. 8. 5. 9. 6. 9. 6. 8. 4. 7. 12. 20. 21. 12. 7.
      7. 6. 7. 6. 7. 8. 10. 7. 8. 9. 11. 10. 7. 9. 7. 9. 7. 8. 11. 24.
      40. 50. 49. 28. 8. 7. 6. 5. 6. 7. 10. 12. 8. 8. 9. 9. 9. 7. 7. 6.
      7. 10. 18. 32. 45. 51. 51. 52. 32. 8. 7. 5. 5. 5. 6. 8. 10. 8. 7.
      8. 8. 8. 7. 8. 16. 22. 35. 42. 49. 54. 54. 51. 53. 29. 8. 7. 6. 6.
      6. 6. 6. 7. 7. 8. 8. 9. 8. 8. 10. 30. 46. 51. 54. 50. 51. 51. 54.
      54. 24. 8. 7. 6. 6. 7. 6. 6. 7. 8. 11. 9. 7. 6. 6. 8. 34. 55. 51.
      54. 47. 52. 50. 51. 51. 28. 8. 7. 6. 6. 7. 7. 7. 8. 9. 20. 13. 7.
      7. 9. 9. 33. 52. 49. 39. 25. 43. 53. 55. 50. 28. 8. 7. 5. 5. 6. 7.
      7. 8. 10. 44. 10. 8. 8. 7. 9. 24. 33. 22. 14. 9. 42. 51. 54. 53.
      26. 8. 6. 6. 7. 7. 5. 6. 9. 12. 62. 18. 10. 8. 8. 7. 10. 10. 11.
      7. 6. 42. 51. 53. 52. 25. 8. 6. 6. 7. 7. 5. 6. 9. 13. 61. 13. 9.
      8. 8. 8. 8. 7. 7. 6. 8. 44. 51. 52. 50. 24. 8. 6. 6. 7. 7. 6. 7.
      10. 14. 58. 11. 12. 9. 7. 8. 8. 9. 8. 8. 9. 45. 51. 52. 50. 24. 7.
      6. 6. 7. 7. 6. 8. 10. 15. 63. 15. 13. 8. 8. 10. 6. 6. 7. 7. 8. 43.
      49. 51. 50. 23. 7. 6. 6. 7. 7. 7. 8. 10. 15. 55. 13. 10. 6. 9. 10.
      8. 7. 7. 7. 9. 44. 50. 51. 49. 21. 7. 7. 6. 6. 6. 7. 8. 10. 16.
      42. 12. 10. 6. 8. 7. 7. 8. 8. 9. 11. 45. 50. 50. 47. 19. 7. 7. 6.
      6. 6. 6. 8. 9. 14. 36. 12. 9. 6. 10. 7. 7. 7. 5. 7. 10. 44. 48.
      49. 47. 20. 7. 7. 6. 6. 5. 6. 8. 9. 12. 29. 11. 6. 8. 7. 7. 6. 6.
      8. 4. 12. 41. 48. 50. 44. 20. 8. 7. 6. 5. 6. 7. 7. 8. 11. 21. 9.
      8. 9. 7. 7. 7. 6. 8. 6. 11. 42. 47. 51. 47. 22. 7. 7. 6. 5. 6. 7.
      7. 8. 10. 12. 7. 10. 9. 6. 7. 7. 6. 4. 6. 10. 43. 47. 49. 47. 18.
      7. 6. 6. 6. 6. 7. 7. 7. 9. 9. 5. 8. 8. 6. 6. 6. 6. 5. 7. 13. 44.
      48. 44. 48. 18. 6. 6. 6. 6. 6. 7. 6. 6. 8. 12. 7. 7. 7. 6. 6. 4.
      7. 8. 6. 13. 41. 44. 36. 46. 19. 7. 6. 6. 6. 6. 6. 6. 6. 7. 15.
      10. 8. 7. 7. 6. 4. 6. 6. 4. 15. 41. 42. 36. 44. 17. 7. 7. 6. 6. 6.
      7. 6. 6. 6. 12. 10. 10. 7. 7. 7. 4. 6. 7. 6. 16. 42. 38. 40. 44.
      17. 7. 6. 6. 6. 6. 7. 7. 7. 6. 6. 9. 11. 6. 6. 8. 5. 6. 7. 5. 10.
      33. 24. 38. 40. 15. 6. 6. 5. 6. 7. 8. 8. 9. 7. 7. 8. 7. 7. 8. 7.
      6. 7. 7. 6. 7. 11. 9. 13. 13. 10. 6. 7. 6. 6. 6. 6. 8. 7. 6.</_>
    <_>
      8. 5. 7. 6. 6. 8. 8. 7. 7. 10. 7. 7. 7. 8. 4. 10. 7. 7. 7. 6. 6.
      6. 6. 6. 5. 9. 8. 10. 8. 6. 8. 6. 7. 7. 6. 7. 7. 13. 22. 22. 15.
      7. 7. 6. 6. 6. 7. 8. 8. 6. 8. 8. 11. 10. 10. 11. 8. 8. 7. 5. 7.
      16. 41. 51. 52. 49. 7. 7. 6. 5. 6. 7. 9. 10. 7. 9. 7. 8. 8. 9. 7.
      4. 6. 6. 12. 34. 51. 53. 52. 53. 41. 8. 7. 6. 6. 6. 7. 8. 9. 7. 8.
      7. 8. 7. 8. 7. 11. 23. 38. 50. 51. 52. 51. 52. 50. 45. 7. 7. 6. 6.
      6. 6. 7. 7. 7. 8. 7. 8. 8. 8. 10. 24. 49. 53. 53. 50. 55. 51. 55.
      55. 42. 6. 6. 6. 6. 6. 6. 6. 7. 7. 15. 10. 8. 7. 6. 6. 22. 52. 51.
      55. 46. 49. 54. 50. 48. 44. 6. 6. 6. 6. 6. 6. 6. 6. 8. 22. 13. 7.
      9. 10. 9. 22. 50. 50. 45. 30. 29. 47. 55. 56. 40. 6. 6. 6. 6. 6.
      6. 6. 6. 9. 49. 11. 11. 8. 6. 9. 22. 36. 21. 14. 7. 29. 50. 53.
      52. 42. 6. 6. 6. 6. 5. 5. 6. 7. 10. 45. 12. 10. 7. 10. 9. 7. 8.
      10. 7. 5. 29. 50. 53. 52. 42. 7. 6. 6. 6. 5. 5. 6. 8. 12. 46. 15.
      12. 6. 9. 9. 6. 7. 6. 5. 7. 31. 51. 52. 50. 41. 7. 6. 6. 6. 6. 6.
      7. 9. 14. 48. 13. 12. 9. 8. 7. 8. 10. 8. 8. 9. 32. 50. 51. 50. 41.
      7. 6. 6. 5. 5. 6. 8. 10. 16. 62. 14. 10. 10. 8. 6. 8. 7. 7. 6. 7.
      30. 50. 52. 51. 41. 7. 6. 5. 5. 5. 6. 8. 10. 16. 64. 14. 9. 9. 8.
      7. 9. 7. 6. 5. 6. 30. 50. 53. 50. 38. 7. 6. 6. 5. 5. 6. 8. 9. 15.
      42. 9. 11. 9. 10. 7. 5. 5. 6. 6. 7. 30. 50. 51. 48. 35. 7. 7. 6.
      6. 6. 6. 7. 9. 15. 35. 14. 12. 3. 8. 9. 6. 9. 6. 6. 7. 30. 49. 50.
      47. 35. 7. 7. 6. 6. 6. 6. 7. 9. 15. 33. 16. 6. 8. 8. 5. 4. 7. 6.
      6. 8. 28. 49. 48. 49. 37. 7. 6. 6. 6. 6. 7. 7. 9. 10. 19. 10. 6.
      8. 8. 7. 8. 9. 7. 8. 7. 29. 47. 50. 48. 35. 7. 6. 6. 6. 6. 6. 7.
      8. 10. 12. 10. 10. 9. 7. 6. 6. 4. 6. 8. 6. 32. 47. 52. 49. 35. 7.
      6. 6. 6. 6. 6. 6. 7. 9. 7. 7. 9. 9. 7. 7. 7. 5. 5. 6. 5. 32. 47.
      47. 47. 33. 7. 6. 6. 6. 6. 6. 6. 7. 7. 10. 7. 7. 8. 7. 7. 8. 8. 7.
      5. 5. 31. 46. 39. 44. 31. 7. 6. 6. 6. 6. 6. 6. 7. 7. 16. 10. 8. 8.
      6. 6. 6. 5. 8. 5. 7. 32. 45. 36. 45. 32. 7. 6. 6. 6. 6. 6. 7. 7.
      6. 12. 9. 8. 8. 7. 6. 7. 6. 6. 7. 6. 31. 41. 36. 46. 31. 7. 6. 6.
      6. 7. 7. 7. 8. 6. 8. 9. 10. 9. 6. 6. 7. 5. 5. 8. 3. 28. 33. 33.
      40. 23. 6. 6. 6. 6. 7. 7. 8. 9. 6. 8. 9. 8. 8. 7. 6. 7. 6. 7. 7.
      5. 11. 11. 12. 12. 9. 6. 6. 6. 5. 5. 6. 6. 6. 6.</_>
    <_>
      7. 10. 7. 6. 9. 9. 8. 8. 7. 8. 10. 10. 9. 8. 8. 10. 8. 9. 9. 7. 6.
      8. 10. 10. 8. 9. 8. 5. 6. 8. 6. 6. 8. 9. 8. 7. 5. 6. 8. 8. 6. 7.
      7. 7. 6. 6. 6. 6. 6. 6. 7. 8. 9. 9. 8. 6. 7. 8. 5. 6. 5. 5. 10.
      19. 24. 23. 9. 7. 6. 6. 6. 6. 6. 8. 6. 6. 9. 12. 9. 7. 9. 7. 5. 7.
      6. 9. 19. 37. 51. 54. 50. 12. 8. 5. 6. 7. 6. 8. 11. 8. 9. 8. 9. 6.
      7. 9. 7. 9. 7. 20. 37. 49. 52. 51. 51. 51. 12. 7. 4. 5. 6. 6. 7.
      11. 7. 9. 6. 8. 8. 8. 6. 12. 34. 50. 49. 50. 51. 52. 52. 51. 51.
      11. 7. 5. 6. 7. 5. 5. 7. 6. 9. 7. 10. 10. 9. 5. 17. 52. 51. 52.
      52. 52. 52. 52. 51. 50. 9. 7. 6. 7. 7. 5. 5. 5. 7. 13. 10. 8. 6.
      9. 8. 16. 50. 53. 52. 48. 45. 47. 52. 54. 52. 9. 7. 6. 6. 6. 5. 6.
      6. 8. 27. 12. 8. 6. 9. 7. 20. 47. 48. 33. 14. 22. 49. 52. 52. 52.
      8. 7. 6. 6. 6. 6. 7. 8. 9. 30. 13. 10. 8. 11. 7. 9. 20. 8. 8. 6.
      22. 50. 52. 50. 48. 8. 7. 6. 6. 6. 6. 7. 8. 11. 33. 14. 10. 6. 9.
      8. 5. 6. 6. 7. 5. 21. 48. 52. 52. 48. 8. 7. 6. 6. 6. 6. 7. 8. 12.
      33. 13. 10. 7. 7. 8. 8. 7. 8. 9. 7. 23. 49. 52. 51. 46. 8. 7. 6.
      6. 6. 6. 7. 8. 14. 32. 12. 11. 10. 7. 6. 7. 6. 4. 5. 7. 25. 48.
      49. 50. 47. 8. 7. 6. 6. 6. 6. 7. 8. 16. 34. 12. 10. 8. 7. 6. 6. 6.
      9. 6. 6. 24. 48. 50. 50. 45. 8. 7. 6. 6. 6. 6. 7. 9. 14. 32. 12.
      9. 6. 7. 7. 7. 8. 6. 4. 5. 24. 50. 53. 50. 39. 7. 6. 6. 6. 6. 7.
      8. 9. 12. 27. 12. 11. 8. 8. 7. 6. 7. 6. 7. 9. 24. 45. 50. 49. 39.
      7. 6. 5. 6. 6. 7. 8. 9. 13. 29. 13. 5. 8. 9. 5. 5. 7. 5. 4. 7. 24.
      45. 48. 50. 41. 8. 7. 6. 7. 7. 7. 8. 8. 12. 22. 12. 8. 9. 8. 6. 5.
      6. 7. 4. 5. 26. 48. 47. 48. 42. 7. 7. 6. 6. 6. 6. 7. 8. 10. 12. 9.
      9. 8. 6. 6. 6. 5. 7. 7. 5. 23. 48. 50. 48. 36. 7. 6. 6. 6. 6. 6.
      6. 7. 9. 8. 7. 7. 7. 6. 6. 7. 5. 4. 7. 6. 24. 48. 48. 48. 38. 7.
      6. 6. 6. 6. 6. 6. 7. 7. 12. 8. 6. 7. 6. 7. 7. 6. 5. 6. 6. 28. 45.
      35. 39. 38. 7. 6. 6. 6. 6. 6. 6. 7. 6. 15. 9. 6. 7. 6. 6. 6. 6. 7.
      6. 5. 27. 43. 36. 42. 35. 7. 6. 6. 6. 6. 6. 7. 7. 7. 12. 9. 8. 8.
      6. 5. 6. 5. 5. 6. 6. 24. 39. 41. 50. 34. 7. 6. 6. 6. 6. 6. 7. 8.
      7. 8. 9. 11. 9. 6. 6. 7. 6. 5. 6. 6. 22. 27. 22. 34. 21. 7. 6. 6.
      6. 6. 6. 7. 8. 6. 8. 7. 7. 7. 7. 6. 6. 6. 6. 4. 6. 7. 6. 6. 7. 5.
      6. 6. 7. 6. 5. 6. 7. 5. 5.</_>
    <_>
      10. 10. 8. 11. 8. 7. 8. 7. 9. 7. 8. 8. 6. 9. 10. 7. 7. 7. 7. 7. 6.
      5. 5. 5. 6. 9. 8. 5. 4. 5. 8. 10. 10. 8. 9. 7. 6. 9. 6. 6. 10. 6.
      6. 6. 6. 6. 7. 9. 10. 8. 6. 10. 12. 9. 9. 8. 5. 3. 9. 3. 8. 19.
      41. 54. 50. 20. 7. 6. 5. 5. 6. 8. 10. 13. 7. 9. 10. 11. 7. 9. 9.
      8. 10. 8. 9. 28. 45. 54. 55. 55. 23. 8. 7. 6. 5. 5. 6. 8. 10. 8.
      9. 6. 9. 7. 10. 5. 6. 8. 26. 46. 57. 51. 52. 51. 51. 17. 7. 6. 6.
      6. 5. 5. 6. 7. 5. 10. 7. 8. 6. 8. 11. 36. 50. 51. 52. 49. 52. 56.
      53. 53. 19. 6. 6. 6. 7. 6. 6. 6. 7. 7. 7. 7. 10. 9. 7. 10. 44. 56.
      51. 54. 50. 54. 48. 49. 55. 19. 6. 6. 6. 6. 6. 6. 6. 8. 7. 14. 11.
      8. 7. 7. 12. 48. 51. 51. 49. 34. 48. 56. 52. 48. 19. 7. 7. 6. 6.
      5. 5. 6. 7. 8. 21. 15. 9. 8. 7. 13. 40. 50. 27. 15. 17. 48. 53.
      52. 50. 19. 7. 6. 6. 6. 6. 6. 7. 8. 10. 24. 14. 9. 10. 10. 8. 14.
      9. 12. 6. 15. 50. 55. 53. 49. 17. 7. 6. 6. 6. 6. 6. 7. 8. 11. 30.
      15. 11. 8. 8. 7. 9. 6. 7. 5. 15. 49. 52. 52. 50. 17. 6. 6. 6. 7.
      7. 6. 7. 8. 12. 33. 16. 16. 10. 7. 8. 8. 9. 9. 8. 17. 48. 50. 52.
      50. 17. 6. 6. 6. 7. 7. 7. 7. 9. 14. 38. 18. 15. 9. 9. 10. 6. 5. 6.
      7. 18. 49. 52. 53. 50. 14. 7. 6. 6. 6. 6. 7. 8. 9. 14. 41. 19. 13.
      8. 8. 10. 9. 8. 5. 6. 17. 48. 51. 52. 49. 13. 7. 6. 6. 6. 6. 6. 8.
      10. 15. 34. 16. 14. 10. 9. 7. 6. 5. 8. 8. 18. 48. 49. 50. 47. 12.
      6. 6. 6. 6. 6. 7. 8. 9. 14. 32. 15. 10. 9. 8. 6. 8. 7. 5. 6. 18.
      50. 50. 49. 45. 11. 6. 6. 6. 7. 7. 7. 8. 9. 12. 27. 16. 8. 9. 8.
      7. 6. 6. 3. 8. 18. 46. 49. 50. 48. 11. 6. 6. 6. 6. 6. 7. 8. 8. 12.
      17. 11. 8. 8. 6. 6. 6. 6. 7. 9. 18. 47. 48. 50. 48. 10. 7. 6. 6.
      6. 7. 7. 8. 9. 11. 9. 8. 9. 8. 6. 6. 7. 6. 5. 5. 18. 48. 48. 49.
      47. 8. 6. 6. 6. 6. 6. 7. 7. 8. 9. 9. 8. 9. 9. 7. 6. 6. 6. 6. 5.
      20. 50. 45. 47. 46. 9. 6. 6. 6. 5. 6. 6. 7. 7. 8. 13. 9. 7. 8. 7.
      5. 5. 5. 8. 6. 21. 45. 38. 41. 42. 8. 7. 6. 6. 6. 6. 7. 7. 8. 8.
      15. 9. 6. 7. 7. 5. 6. 6. 5. 6. 22. 44. 38. 42. 40. 8. 6. 6. 6. 6.
      6. 7. 7. 8. 8. 12. 9. 8. 8. 6. 6. 7. 6. 5. 8. 22. 42. 39. 44. 41.
      9. 6. 5. 5. 5. 6. 6. 7. 8. 8. 8. 9. 10. 8. 5. 6. 7. 5. 6. 7. 15.
      30. 27. 36. 34. 5. 6. 6. 6. 6. 6. 7. 8. 8. 6. 9. 8. 7. 7. 6. 6. 6.
      7. 7. 5. 6. 6. 8. 6. 7. 7. 6. 6. 6. 6. 6. 6. 6. 6. 5.</_>
    <_>
      7. 10. 6. 6. 9. 9. 8. 8. 6. 11. 8. 8. 7. 10. 7. 10. 7. 8. 9. 9. 7.
      8. 8. 6. 8. 5. 9. 7. 6. 7. 7. 7. 8. 8. 9. 6. 9. 10. 15. 12. 11. 8.
      6. 7. 7. 6. 6. 8. 7. 6. 8. 10. 11. 10. 9. 9. 8. 8. 6. 5. 5. 12.
      21. 34. 38. 38. 11. 7. 6. 6. 5. 6. 9. 10. 7. 9. 7. 9. 9. 9. 8. 6.
      6. 9. 12. 22. 33. 41. 50. 54. 51. 13. 7. 5. 7. 6. 6. 9. 12. 8. 8.
      5. 8. 8. 7. 7. 10. 19. 27. 32. 43. 50. 51. 52. 54. 50. 14. 7. 5.
      6. 6. 5. 7. 10. 9. 9. 8. 10. 8. 7. 8. 18. 42. 46. 49. 53. 53. 53.
      52. 55. 54. 13. 7. 4. 6. 6. 5. 6. 7. 8. 11. 9. 10. 7. 7. 7. 19.
      52. 53. 51. 51. 49. 55. 54. 53. 50. 13. 7. 5. 6. 6. 6. 6. 6. 8.
      16. 12. 9. 7. 10. 8. 17. 51. 52. 45. 38. 34. 48. 53. 54. 51. 12.
      7. 5. 6. 6. 6. 7. 6. 8. 23. 11. 9. 9. 7. 7. 16. 36. 32. 24. 14.
      22. 50. 53. 55. 50. 11. 8. 6. 6. 7. 7. 7. 8. 11. 31. 15. 10. 8. 7.
      8. 8. 14. 10. 9. 7. 21. 51. 53. 53. 48. 10. 8. 6. 6. 7. 7. 7. 8.
      12. 33. 15. 10. 9. 7. 9. 7. 8. 8. 9. 8. 22. 50. 52. 52. 48. 10. 7.
      6. 6. 7. 7. 7. 8. 13. 39. 16. 10. 10. 7. 6. 6. 9. 8. 8. 8. 21. 49.
      51. 53. 50. 9. 7. 6. 6. 7. 7. 7. 9. 14. 36. 14. 9. 9. 7. 7. 6. 7.
      5. 6. 7. 22. 51. 52. 52. 47. 9. 7. 6. 6. 7. 7. 7. 9. 14. 23. 11.
      11. 9. 7. 10. 8. 8. 8. 8. 8. 23. 52. 53. 51. 45. 9. 7. 6. 7. 7. 7.
      7. 9. 15. 23. 14. 13. 10. 7. 9. 6. 7. 6. 6. 5. 20. 49. 51. 51. 46.
      9. 7. 6. 7. 7. 6. 7. 9. 14. 30. 14. 7. 6. 9. 10. 5. 8. 7. 8. 8.
      22. 51. 51. 49. 43. 8. 7. 6. 7. 7. 6. 7. 9. 12. 21. 13. 7. 7. 8.
      8. 7. 7. 4. 7. 7. 24. 46. 48. 50. 42. 8. 7. 7. 6. 6. 7. 8. 9. 10.
      16. 11. 8. 8. 9. 7. 6. 7. 7. 7. 5. 24. 48. 50. 51. 42. 8. 7. 7. 6.
      6. 7. 8. 8. 10. 11. 9. 7. 9. 9. 7. 6. 6. 6. 5. 4. 24. 48. 48. 49.
      42. 8. 7. 7. 6. 6. 7. 7. 7. 8. 10. 8. 7. 8. 9. 7. 6. 6. 6. 6. 7.
      26. 47. 43. 45. 42. 7. 7. 7. 6. 6. 6. 7. 7. 6. 11. 9. 7. 8. 8. 8.
      6. 6. 5. 6. 7. 26. 44. 39. 41. 38. 7. 7. 6. 6. 6. 6. 7. 7. 7. 13.
      10. 8. 7. 8. 8. 7. 6. 6. 6. 6. 25. 45. 41. 43. 39. 7. 7. 6. 6. 6.
      6. 7. 7. 8. 11. 10. 9. 8. 7. 7. 6. 6. 8. 9. 8. 23. 40. 37. 40. 37.
      7. 6. 6. 5. 6. 6. 7. 8. 7. 10. 10. 9. 8. 7. 6. 6. 6. 4. 6. 4. 15.
      26. 19. 23. 22. 7. 6. 6. 5. 6. 7. 8. 9. 6. 8. 8. 8. 8. 7. 7. 7. 7.
      8. 7. 5. 6. 9. 8. 7. 8. 6. 6. 5. 6. 6. 6. 6. 7. 6.</_>
    <_>
      8. 7. 6. 6. 7. 6. 8. 7. 5. 9. 8. 4. 11. 8. 6. 7. 7. 7. 9. 7. 6. 9.
      8. 6. 7. 7. 7. 7. 7. 5. 5. 7. 7. 8. 6. 5. 10. 3. 8. 8. 7. 10. 5.
      5. 5. 5. 6. 5. 7. 6. 8. 9. 10. 11. 8. 8. 9. 7. 7. 9. 5. 10. 14.
      44. 54. 47. 18. 8. 6. 7. 7. 7. 7. 12. 7. 6. 6. 7. 9. 7. 9. 6. 6.
      9. 7. 12. 33. 50. 52. 50. 54. 19. 8. 5. 6. 7. 6. 7. 11. 8. 11. 10.
      9. 9. 4. 5. 3. 13. 16. 36. 51. 52. 54. 54. 54. 54. 18. 8. 5. 5. 6.
      6. 6. 8. 7. 5. 6. 7. 9. 7. 10. 17. 45. 57. 55. 52. 54. 52. 56. 54.
      50. 17. 9. 6. 6. 6. 8. 6. 7. 7. 12. 11. 7. 9. 7. 7. 13. 51. 52.
      52. 52. 52. 53. 52. 53. 55. 16. 7. 5. 5. 5. 6. 4. 6. 8. 15. 12. 5.
      9. 10. 8. 10. 51. 53. 56. 44. 23. 48. 53. 55. 51. 19. 8. 6. 7. 7.
      6. 5. 8. 9. 35. 11. 9. 9. 7. 4. 17. 43. 39. 24. 6. 10. 49. 54. 54.
      53. 18. 8. 5. 6. 6. 6. 6. 9. 10. 38. 13. 8. 7. 11. 10. 4. 5. 6. 7.
      5. 12. 48. 52. 54. 54. 17. 7. 5. 6. 6. 6. 6. 9. 10. 38. 16. 13. 7.
      6. 9. 8. 8. 3. 8. 9. 14. 48. 53. 53. 51. 16. 7. 5. 6. 6. 6. 6. 9.
      16. 39. 12. 10. 9. 8. 8. 7. 7. 8. 10. 6. 11. 47. 54. 54. 50. 15.
      7. 6. 6. 6. 7. 7. 9. 13. 47. 16. 10. 8. 7. 8. 8. 10. 4. 6. 5. 12.
      48. 52. 53. 52. 15. 7. 6. 6. 6. 7. 7. 9. 15. 32. 11. 12. 9. 8. 7.
      5. 5. 6. 8. 7. 16. 50. 51. 50. 50. 14. 7. 6. 6. 6. 7. 7. 9. 14.
      38. 15. 10. 5. 8. 11. 8. 8. 7. 6. 4. 13. 49. 51. 50. 49. 14. 7. 6.
      6. 5. 7. 7. 9. 13. 31. 12. 10. 7. 10. 8. 3. 8. 5. 7. 7. 14. 49.
      50. 50. 48. 13. 7. 7. 6. 5. 7. 7. 8. 12. 28. 14. 8. 8. 9. 8. 5. 6.
      6. 7. 7. 10. 46. 51. 48. 49. 14. 8. 5. 7. 6. 6. 8. 9. 11. 24. 12.
      7. 7. 8. 8. 6. 6. 5. 5. 6. 13. 46. 49. 51. 50. 12. 7. 5. 6. 6. 6.
      7. 8. 9. 15. 9. 8. 8. 7. 8. 6. 6. 6. 5. 6. 15. 46. 46. 49. 48. 11.
      7. 6. 7. 6. 6. 7. 7. 8. 8. 7. 10. 10. 7. 7. 6. 6. 7. 5. 6. 15. 48.
      46. 44. 48. 11. 7. 6. 7. 6. 5. 6. 6. 7. 9. 7. 9. 8. 6. 7. 6. 5. 7.
